solver_type L2R_L2LOSS_SVC_DUAL
nr_class 6
label 1 2 3 4 5 6
nr_feature 16896
bias -1
w
0.0029243850878253 -0.02055876861602545 -0.009957408107521616 -0.0001951243663366846 0.01648531099249085 0.003117127875497245 
-0.01401730967144624 -0.002067275913057574 0.007702999233199686 -0.005773594432597717 -0.007934480091290056 0.01282722161940208 
-0.01616222324884271 -0.0099892575992002 0.02137497062637804 -0.01961382779040792 -0.007444505948407878 0.004662901255176149 
-0.02218928886078631 -0.006771117810228999 0.01789157974753833 -0.01417454234526968 -0.01381253519218874 0.01443406544884011 
-0.03146950745933254 -0.01689140986916789 0.02046284468779411 0.03990798066856006 -0.01182744898871634 0.01341776743623269 
-0.01074326150146428 0.003014517520386491 0.01577028770714609 -0.02043595247526808 -0.004632470312875908 0.0002358278787111229 
-0.001214950289014837 -0.001624568091666826 0.0284492109081391 -0.02555268084072012 -0.01240800029083056 0.0008563796178439449 
-0.008848585845100572 -0.02496101140922082 0.04248162822655732 -0.0318319468859115 0.01164612504625604 -0.0166295382587657 
-0.06964336860651123 0.02409582212289501 0.004048334208766878 0.0006792334929197406 -0.00391793568123005 0.02497296418953717 
-0.03911962355120915 0.01739489330995461 0.01620260315731415 -0.009024105918897079 -0.00925611090794696 0.006576145061927045 
-0.008903284543309178 -0.01387647750421862 0.02956137265329464 -0.01125610714422873 -0.02344947747413361 0.003127748357628213 
-0.01923884877194649 0.01162912134599075 -0.008969058206674208 0.01046749585729012 -0.003546441036066007 0.00278312219661157 
-0.02790592863804803 0.01402740211343102 -0.002121120333291506 0.03135150338892691 -0.01989575957130152 0.02020311369049623 
-0.01715904460404303 0.001704047630421286 0.01517166266445857 -0.01858805748571582 -0.03000763822094541 0.0418466558215847 
-0.01782042283840115 -0.001060588903850225 0.02835294833908789 -0.005185391677506875 -0.02099877966460175 0.01024421842961183 
-0.01382612659449243 0.004986900969785946 0.006720478353996426 0.004426014440394025 -0.01804624576299891 -0.007039582314522157 
-0.009487832306990894 0.02723357909328761 -0.02266026387730783 0.006579234682818658 0.003413861969829584 -0.01658742648654873 
-0.01868492419616797 -0.005403712913733542 -0.006610019485442863 0.007551977615147145 5.312540643642293e-05 0.01467481541421766 
-0.01250601698008059 -0.0182054082812117 -0.002059737797940394 0.001479606506909214 -0.007172701549187322 0.01130829423239686 
-0.03530679154020125 -7.052131786135571e-05 -0.003710132347721153 0.01467364837657146 -0.01151684857713439 0.01955780298807161 
-0.03361431233594202 0.02056273339053883 0.007261009489113191 0.0185337836830935 -0.0201631361328118 0.01663285634429961 
-0.007625171489951227 0.004788059220906933 0.002746502236267871 0.007047933911229236 -0.0255343537128679 0.01376281030933878 
-0.02018020287671166 0.007986630185515721 -0.00513849398452224 0.01496576905869225 -0.007762822000517024 0.01235498117121472 
-0.05572213091713592 -0.01620411246815048 -0.01201512831737189 0.03601886283231705 -0.000725500780233202 0.02913112138205623 
-0.0001165463005816206 0.01428678609259056 -0.01035797078506743 -0.03267447406866014 0.0287892195522176 -0.02818184431616789 
0.003023015675380322 0.002050474966322534 -0.02371999919664207 -0.01315664789470363 0.005017574772639873 0.01567131789020631 
-0.0118084068934635 0.0119292142536995 -0.02556534350487959 -0.006450984220024832 0.002636989056231313 0.02931055141839174 
-0.02656417651717137 0.005467236169071387 -0.0081067917859709 0.02213672485165686 0.03056741710292723 -0.01808911539459484 
0.0004677437941609581 0.01463455026428923 -0.02462747750614339 0.01370268043884907 0.03329669847693478 -0.006330346857858384 
-0.02994101021204789 0.004045134603408969 -0.01850153962668116 0.004108801093968573 0.02709438250173254 -0.001813291791539325 
-0.0139922139464604 -0.01842715802791614 -0.01109421828498039 -0.0009686517958951858 0.00574093646978624 0.03505200699130066 
-0.0211559063205527 -0.0134356419188667 0.01084570514438635 0.01592638937351386 -0.00449833340638246 0.005134193145591291 
0.02975890691982863 -0.01183768627609342 -0.03177725838075058 -0.01357957217218889 0.03020664822728899 -0.02667322460901843 
-0.02191777801239529 0.02013224243427904 -0.02994989042382486 -0.006906854360681042 -0.02175195411891491 0.04538408685509534 
-0.01590512589633083 0.01771427620666699 0.005604698429150639 -0.01005746911237085 -0.006202025115777926 0.006714451020935852 
-0.01700317233961861 -0.01087627305739458 -0.0235116737347965 0.02728899386263715 0.02891441903742714 -0.0126964479421704 
-0.002714628510331342 0.01500878942839951 -0.04133380740935155 0.03889909528342336 0.04480272611882138 -0.02599138034889791 
-0.01364866427212788 0.01261792895664758 -0.04070834090444642 0.008192729106067356 0.03491751317742569 0.002964389067032075 
-0.03299752524257673 0.004815245454189684 -0.02585554738215956 0.01386879971113075 0.01092051792530963 0.03172507538785621 
-0.01442924188726218 -0.01358862206058701 -0.001758945689471833 0.01955843760399991 0.02091717448240162 -0.01037628745278179 
0.0005792694126105306 0.022290182778569 -0.03073539234763014 0.008188329925775383 0.004286580134236963 -0.01053604846974551 
-0.01561152165314893 -0.01370813927558967 -0.01403412691252431 0.01137152027249288 -0.00593084433185862 0.01720611406446725 
-0.01100526351005023 0.003464812352773432 -0.008936091670247283 0.007333876529486015 -0.003585039804947573 0.009995087277479163 
-0.02845564281532171 0.004320914264589854 0.003081409000842037 0.009233620038312976 -0.002889922543675251 0.004436889466841816 
-0.05381172410536011 0.02536529540762303 -0.01587799831455732 0.03457085744933096 0.03972535324061375 -0.00925822241522572 
-0.02575403404821411 -0.01727885943547607 -0.01264383484793521 0.007604192852567577 0.01476651116387386 0.01595112478872711 
-0.003041212989762068 -0.03016587900347169 -0.01811345738225315 0.01373649960099573 0.001474666809079421 0.01961713463754746 
-0.02573568845069312 0.01061824155149485 -0.00293042972499242 0.03040395172924496 -0.01578566468364623 -0.01328387631408633 
-0.0187474752505555 0.01402677812848407 -0.01526206212148175 0.002783870816062006 0.007419289050969496 0.00537903886854013 
-0.03053903075610791 0.009351364725769628 -0.009336972945394182 -0.004414808300292029 -0.003065818323301624 0.02263082861484637 
-0.02007180925884854 0.02540963563702993 -0.001816675343355014 -0.008071157957168638 -0.01147112054883101 0.005864761563593943 
-0.01033910929366018 -0.004424790557096769 -0.007167052211068483 0.001611082484247488 0.00159776288880628 -0.001514996246569249 
-0.03177495691302933 -0.02628992003885173 0.01248134422109975 0.02241630132385093 -0.009076192170558606 0.01873548570916284 
-0.003085081081595509 0.003354680144633713 0.01935384658675659 -0.01752682096569781 -0.0187556479102866 0.00448051602367058 
-0.0188054876724746 0.004774415499916348 0.01443063092885719 -0.007838621822019462 0.006723250104632855 0.002228716335235405 
-0.0142383228101062 -0.004628414661398032 0.004635604703870541 0.01788089575188868 -0.0227015085362041 -0.003620801030376237 
0.005746150232483696 -0.01801827577247095 0.02255692678545911 -0.03083719168357084 0.01574715804167371 -0.02678353684494106 
-0.01042936984831011 -0.01130416063666732 0.02097612184864837 -0.01698386473262607 -0.00407898057030931 0.0009106010275124062 
-0.02114493160852967 -0.01686505149955883 0.01630471970168736 -0.01600703769115604 0.009311880730917921 0.005948060646144917 
-0.003414088790079514 -0.01121939757299956 0.01162534474643655 -0.01426454589199657 0.007222269084401048 0.0004887939262164498 
-0.04821154645914023 0.008864200496674215 0.01805645842038014 0.03226735927170654 -0.02188878466978077 0.02373245195741393 
0.01219783292369866 0.0008904990067610465 0.01214094547028691 -0.02287483736848814 -0.01213123870078066 -0.001110760720664165 
0.01414621093999704 -0.002025320447641445 0.02123621758120522 -0.03718002967759231 -0.007181342758315849 -8.969085939642349e-05 
-0.009353990741467881 0.02815160454465288 0.03232925067807531 -0.04053038061599611 0.0001402124012171314 -0.0103339369549882 
-0.01317843112680478 -0.003865797067339652 0.01801160303165111 -0.01440965195217086 0.005826249998107869 0.02290996465523678 
-0.04344568291870693 -0.007214261311295412 0.01540461809493692 -0.02430516093235124 0.01360667877657316 0.02030313048766857 
-0.03576139515722138 0.01556338490054951 0.001573638949304383 -0.009443164566873609 0.007424230197923818 0.007544296269773221 
-0.03126057855617628 0.0008069626089117285 0.007661046967290059 -0.009154146093283431 -0.0007594304394691009 0.0006607667588518582 
-0.02984026011951461 0.003078058957454032 0.0241466891220837 0.003294350648416606 -0.01193057368674918 0.006229171199214684 
-0.02235141601646795 -0.01006340635566666 0.02535208251926372 -0.01975183002821995 -0.01618004284807421 0.01577243287421162 
-0.01702006159547412 0.01110283902521434 0.0179180910032824 -0.02259618940979916 0.00394255770605507 -0.004000542195061805 
0.001624024288312861 0.01615417457402164 0.005388169407583184 -0.002842863562975638 -0.03224203905802546 0.01071755015654207 
-0.01033405666650665 -0.0435822579469396 0.005556362156779678 0.01782806590858957 -0.02616949755424534 0.02984377969259268 
-0.0001079741997212086 -0.02674083735240347 0.004589474167658816 0.0006801497128668108 0.01141054511979979 -0.001250211568477937 
-0.04002306413542169 0.03635431443464714 -0.00506916830174351 -0.001435399775124285 0.0004629778616251499 -0.004144689584663063 
0.01353243269305167 0.01879620125929083 0.005056109353383197 -0.0142995824290305 -0.009287569078499256 -0.03316977026319879 
-0.0409829940747077 0.03913466968298345 -0.0336431806683558 0.01925080170104091 -0.0282809475375589 0.03608805708462556 
-0.03747051872231338 0.01042581103067861 0.0114536020807696 -0.003711172595626239 -0.02224765539671895 0.01087452625688774 
-0.03165025152111297 -0.0192954190298583 0.03650131628699246 -0.01713016029829551 0.001286801119073489 0.02122700397695335 
-0.002093268277048856 -0.02539762607170539 -0.003461862478642884 0.008016559513827725 -0.02793951498181122 0.02026326606617631 
0.009946849212233525 -0.03139425511979681 -0.02664304822502063 0.01250060836602077 -0.02939147656764117 0.04112411933526732 
0.004707621136967735 -0.03070516401817881 0.01138531728713821 -0.00434613115639118 -0.001670345026229447 -0.01704164850138428 
0.01224529130790878 0.01338322352167231 0.01220215988067291 -0.02756367408474584 -0.01216189757199097 -0.01761888260944226 
-0.0002167898610807457 0.007114984222414717 -0.01732881466659132 -0.01684272663715075 0.02875509773151363 -0.01995294483837315 
-0.008174464953489516 0.008107432207999952 -0.02551444886141689 0.01076402629810817 0.03884143538934653 -0.01170452286972381 
-0.03956181069051892 0.01930560125326559 -0.01759938636265373 -0.004320938627954633 -0.0006321650739924243 0.02963777042965779 
-0.02763651942610688 0.0002841744074818114 -0.00803070666993418 -0.01296898176416746 -0.01322821970957254 0.02252751515305209 
-0.03878506721574228 -0.01682146012852928 -0.004061644746631225 -0.001488977307377668 0.009663262137476822 0.03052062500945489 
0.03068699251136386 -0.04034839703297439 -0.03873119360034483 0.01265713544946583 -0.01312423838555072 0.01970867421539601 
-0.02462326607069406 -0.009146476971155238 -0.01304403022172898 -0.01102978884392873 0.007186023574843713 0.03247743381296603 
-0.01547180795413997 0.005330609203584997 -0.0324998407022349 -0.01256494437401675 0.016434300270018 0.03332611866315044 
0.01538518569114668 -0.001130649231199621 -0.01647430795858668 -0.0155377417518524 0.009523243266417094 0.0007272844039847888 
0.01274399319460595 0.007176164025869606 -0.03214735250533698 0.005211831612089901 0.03053424059935654 -0.01271985083816452 
-0.0008096057458759045 -4.65013911670384e-05 -0.01966367337724732 -0.01213862163400016 0.03118521618347744 -0.01192852529562559 
0.009838109634981416 0.01293566831083237 -0.01602630990872658 -0.008875528464850889 0.001963686325541298 0.004448698114904979 
-0.04812764833807077 0.011320075521564 -0.03469839141389904 0.01530768959147524 0.05502383863095175 -0.005785167772886413 
-0.001652600144431607 -0.05836180624092363 -0.04930504037347894 0.05155116723658387 0.0001863705734735235 0.03524693534029041 
-0.007650264677656736 -0.03401403455081028 -0.01921900334618854 0.001015267474134014 -0.003154581830658575 0.05299582031292496 
0.01079761069408259 -0.001331834779206121 -0.01273621044237304 -0.019965254372873 -0.002218357067552223 0.02819921125757444 
0.02313616321450354 0.006163162888442334 -0.02491064107183688 0.004543211047729438 0.007042403983551124 -0.005133564458292304 
0.0223696476775954 -0.0007157259152750053 -0.02793028800025129 0.01180995075128636 0.02591181288913941 -0.01187480520433727 
-0.01492195798613114 -0.0002179966643219464 -0.0260336562620906 -0.0002260428037732944 0.03619959835371511 0.004436364841408891 
0.002926555474801283 0.01009884884035148 -0.007377936977888201 -0.01045057258877625 0.001350734250445395 0.0004155087716004203 
-0.01998123408084294 0.01311096203089099 -0.04392660803408037 0.006751799268389196 0.06952668488155266 -0.03068521343444451 
0.008200035870959927 -0.02676728304043723 -0.03875312233639409 0.02661017535209522 -0.02166516273049891 0.0300896980747995 
-0.02201642032387327 -0.02489236117261492 -0.01901246320428421 0.01141424782258565 0.02389570594693064 0.007865683557308201 
-0.02272983633933736 -0.02010138715874802 0.005402766066385611 -0.01097711989291018 0.02908123372643153 0.005263160214990441 
0.02147983563288767 0.008972087073992684 -0.01954526740694669 -0.01011853640670654 0.02205331196541913 -0.03130362860053005 
-0.005378345341589352 0.03953758736416117 -0.02302790292223918 -0.007531917565631013 0.03062988187542275 -0.01520552784133831 
-0.01454778829314466 0.02423555015322727 -0.01446762306827806 -0.01097550237156363 -0.01572057556743633 0.02627388533394987 
-0.02704636072146885 -0.0198579807666151 -0.02584927851523692 0.0004636247383390658 0.02308932285929154 0.03263912054692342 
-0.0199396193835142 -0.01897841833378774 -0.03051132070654795 0.01057965692365028 0.02925609353625203 0.01216240524737473 
-0.02107600025730832 -0.03238149620282053 -0.003363785326362602 0.02866061450516448 -0.01844756695900104 0.01243273512462047 
-0.03491915081805962 -0.02807291331021705 0.04095866711169103 -0.01497004253768404 0.002131627689698756 0.01196275899858003 
-0.04366583649736728 0.03773558367853037 -0.009295876831476835 -0.005400019884953792 0.01846225874529803 -0.007280606526168297 
0.02048611738932893 0.0143224528000034 -0.01927905117384111 -0.01413706822491028 0.01047524702338393 -0.02219820342133847 
-0.01168809144604345 0.01135738757041266 -0.04279164566952946 0.03138207736277436 0.02578751631978579 -0.02111293735824378 
-0.04649701205957291 0.01691999697975117 -0.01461866403748775 -0.000140757814898458 -0.006842918893188729 0.03010870151798097 
-0.02221515163106229 -0.03093418084888888 0.03301495293120879 -0.005539822284269318 -0.02734116418549655 0.02881171887212332 
-0.0303693848854252 -0.01186900505389309 -0.0100821122869851 -0.001783580141660298 0.008808017810039964 0.01668372834656799 
-0.03648585876682678 -0.008509515110859052 0.02192253756591053 -0.01455385439325639 0.0001241790147652199 0.02761648839823734 
-0.03745176005617873 -0.01430597366447217 0.0315602860912456 -0.03332620476270522 0.01183851786937756 0.00973585059584429 
-0.04263107401963353 0.007980507764900819 0.008023241986603423 -0.02592138566283755 0.01625789354884742 0.01226900439460248 
-0.02428111378247797 0.01393899657411401 0.007292176024595666 -0.007549948302614402 -0.0004214633462406625 -0.01303761939979097 
-0.03843202762178332 0.007287775053345755 -0.001472710058404762 0.01422230639571496 -0.01121000734547567 0.02601040010105024 
-0.02613153463364069 0.01387512694071288 0.01618071337790855 -0.02888945952440012 -0.0005801772264086176 0.02042704623314511 
-0.01326603807605749 -0.0229313990679278 0.02772514919502536 -0.01892637295637194 0.009681916341165227 0.01084329936175407 
-0.009791556943844633 -0.01349105851077282 -0.00452757531507527 0.009009603110651162 -0.03436221404811589 0.0300074626443077 
-0.02223497797161651 -0.005338850261098154 0.02302218637540359 -0.01978342532515118 -0.00387594120832632 0.001427486924498917 
-0.01066619209950683 0.003736028426444183 -0.01373020636435031 0.009490124484054693 0.01512443085530307 -0.01212137639379037 
0.01450978923844443 0.0009162749201847261 -0.001101195469712294 -0.007641648850755431 0.006730964139569651 -0.01017929648974496 
-0.0005339723319309497 0.003972870365195628 0.005728474369765932 -0.01108813842083884 -0.002719686972483359 -0.003965917440231441 
-0.009450076212943812 0.05199866006352396 -0.01264080675350745 0.005029164373585375 -0.003106801615344235 -0.01883996541358316 
-0.01637188808096749 0.01593877628102618 -0.01608720550251495 -0.001762104208686687 -0.0009070746660223802 -0.00326008371504076 
-0.01441159777650551 -0.006207180302250663 -0.01149501464590177 0.0240170214550646 0.005014649269157923 -0.003068459938912723 
-0.05284454892849839 5.734342220023005e-05 0.01019489572585282 0.009855151423145645 0.01469998550242629 0.01510918352257808 
-0.006893977501534483 -0.05768206960653249 0.01368009049990084 -0.008236775406698267 0.01394250742881358 0.02396128251658293 
0.02114708919057165 -0.01887335826926503 -0.006290598516751944 -0.003257133970404206 -0.00305826206878592 -0.009306051353505833 
0.001887750514087958 0.04005462125335094 -0.001940322606227823 -0.01411995453644194 -0.0279759821759081 -0.00625986482949774 
0.03774609531014638 0.02672443321446111 -0.007297458800988613 -0.006133531891194505 -0.02384115319972585 -0.05092133623934118 
0.04042791061985421 0.03224833803017092 -0.02995752484088662 0.01351239033181198 -0.003729612983688303 -0.03965736593995375 
-0.002242697312273517 0.01912537474341888 -0.006122909164811082 -0.0131422101911177 -0.01752231298406797 -0.004578231118581599 
-0.009167464409960427 -0.0001638188071161526 -0.02606291702411067 0.0315752138529874 0.001154960232913187 0.001203001831038084 
0.002702310616237987 -0.004277160221773438 7.255726450589217e-05 0.01523242644397355 -0.01817806857073337 0.001515290862724324 
0.02218839009434566 -0.03997124661412507 -0.0004373256764501985 0.0162480530363361 0.01178646537341518 -0.03653461153249297 
0.01199118926261714 -0.04819857699293886 0.009860861352263387 -0.006752447459417187 0.003333276093610434 -0.004647183392678657 
-0.02522176233479267 0.005189674424679998 -0.02275113470029734 -0.00418134248502441 -0.006535910406951688 0.02161205282682298 
-0.01510890459171602 0.0251941391427131 -0.03335588920496817 -0.01006921224586861 0.0332356965351944 0.004953221285688925 
0.01219361412990162 0.02776546985013406 -0.05033478343530275 0.002260063334489312 0.05080489683485467 -0.02819332042847237 
-0.02890694550668004 0.01612335910351059 -0.001337474564804444 -0.02677810922018894 0.01254949577624872 0.02057558917828388 
-0.02099438035864122 0.00975917157533689 -0.04113870295477503 0.005275567479331525 0.01100514422657451 0.02895259262647516 
0.02068288545359052 0.02049858985068801 -0.04224013205012855 0.007686551073465789 -0.01313429015372619 -0.003812141793701763 
0.01769430456897284 0.0112359976035656 -0.04367594293394694 0.01623124977698039 -0.02839628028011174 0.01204314309437975 
-0.02288581817580519 -0.02548337123409931 0.006056744416917116 -0.001522237046630317 -0.02083705074746743 0.03621380946752917 
-0.01492537550857765 0.003985445017412476 -0.002994175195052635 -0.0050589950883406 0.005670739874251709 -0.002365632140278531 
-0.00171181817064682 -0.007717493606545926 -0.02860380846505521 -0.02695790154664275 0.0500938042408452 -0.006473938146272895 
0.004101952215106073 -0.02564169467408592 -0.03572388244197167 -0.0185456373715669 0.06455326871057111 0.005424723650126147 
-0.04253372401867873 -0.01654665267461329 0.003282809280714174 -0.003832632326382613 0.0186600860887361 0.03226605152619676 
-0.01593904834552774 -0.05079951281740569 -0.02528928407411508 0.05274458745866818 -0.01014849733044618 0.01339749564530499 
0.05904900688382983 -0.002009268222007264 -0.04095619082577086 0.0244775899395509 -0.008530060360834949 -0.05180372927126318 
0.006207467234138446 -0.0008758949088703354 -0.05269805104710141 0.001344155025387494 0.02376032770335314 0.002111845738136818 
-0.03300512345911449 -0.02730863523070413 -0.0173416324347093 0.01843868462332228 -0.01804933401875626 0.05453731508682724 
-0.02281182810432038 -0.005016689347468121 0.003876110217680221 -0.007338309440041574 0.002360658096448595 0.01024858339475449 
0.009459766892977983 -0.01499777920684671 -0.009055820001071323 -0.02260604105431409 0.01482047133004107 -0.005909116129028972 
0.01783792472074766 -0.03469539739993514 -0.03966896277631401 -0.009979858701803608 0.01615632951520742 0.02723223389556229 
-0.05626059455940666 -0.05049753407231763 -0.003281485848329188 -0.002499829659537987 0.0361488852349898 0.03808695977328715 
-0.011569803790477 -0.04393327539783568 -0.01206516033045784 0.05021068416678556 -0.004737730860192612 -0.002761510520210775 
0.07941299946588994 0.02427780625077373 -0.05040026391217806 0.006816843966045028 0.006726392697826235 -0.07337596536335153 
0.03231709737265694 -0.03793498037656277 -0.003110378642383209 -0.001120230398689276 0.002949999212166194 -0.01112234171656818 
0.02171196671281858 -0.03605862006445546 0.03037558985568793 -0.02972281504298413 -0.04149258765535082 0.01522803131507426 
-0.0245075052938165 0.02833901869458176 -0.003935210957592249 -0.02310978632596805 -0.03212089081288198 0.02791200900081752 
-0.02294893224730871 0.02568606046828139 -0.04704754632522998 -0.004150456656958569 0.03258584575496287 0.01046374339671498 
-0.02569831774203375 0.02235772970465559 -0.04391814217307995 0.01582084864906836 0.0407739702070687 -0.005383263910924338 
-0.01594268230910621 0.0335481572102318 -0.03003041145464106 -0.01620448272859592 0.0488097503785543 0.002802282905756087 
-0.02746172606529934 0.002560417578901895 0.01626727993626803 -0.01464230700411622 0.0117240088394613 6.539820054321729e-05 
0.03409388679318432 -0.002935528963252611 -0.01927901758296081 0.02294122484377742 -0.01778000237325738 -0.04290151277965423 
0.01888506168071185 -0.04211113352297295 0.01022807797719708 -0.01275623716648706 0.01038637875811772 -0.01915849327524833 
0.02456475948835464 -0.02607662182986136 0.001666076667806495 -0.004461337441611419 -0.01529242347200409 -0.004349486392090756 
-0.007522461906770868 0.0001343039654692309 0.003424375257291759 -0.009010612246892064 0.002756691391694401 -0.0006579144936038363 
-0.006565298793992249 0.0426914784635392 -0.01093248443790801 -0.01169445648192325 -0.01397195264082068 -0.01389320271165534 
0.01574477781307744 0.03431059416572296 -0.02472360368628252 0.00802544041219545 0.01532412926026638 -0.03613833288247396 
-0.01990641877158544 0.03034627667299061 -0.01447872622320422 -0.02050593777987965 0.02748445024255986 -0.01823843064456031 
-0.0139860104631987 -0.01878366596627746 -0.02026872819669794 0.01696115289478051 0.0008857362742115432 0.01896228477619416 
-0.002951375289792762 0.004630284820416854 -0.03521957504086364 0.02745026156650752 0.0287868843060573 -0.008499851499501507 
-0.007757999124381024 0.001837022807617815 0.01030942100076141 -0.02108422162818731 -0.006240110680541912 0.007821836358203365 
-0.01819777607714778 0.002275906361374877 -0.00702265077798873 0.005825939051218041 0.001865105115569725 0.003812663228959893 
-0.02708941745735324 0.0404077980466165 -0.01534630108060739 -0.005172592979668568 0.00570957186176229 -0.003915628794140922 
-0.009554342906447143 0.002888834033274336 -0.003477401846321508 -0.01791150412258218 0.01882589184728564 -0.0111930033912868 
-0.008985810477906541 0.02732463547435912 -0.01755376458033337 0.01523959607121232 0.0001771547724712378 -0.008040683173732362 
-0.02556472330838061 -0.006726738834316929 -0.01708714208729094 -0.004481329076023302 0.002393922089529299 0.03971371700479878 
-0.01077383150639638 0.00803884962823247 -0.01656880171845132 0.01717296408682043 -0.001224950160132052 0.01498029771396274 
-0.02356319744571632 0.01254218497782309 -0.005580604886560215 0.0107961953908897 0.01390174523592483 -0.009018883442521235 
0.003892194454760874 0.01037519327066599 -0.01924313574272756 0.02174421252009731 0.02282717917690701 -0.02388283117162656 
-0.008986889519520484 0.01468971231746734 -0.01235975425833385 0.01215958506456137 -0.006846294305628026 -0.0001983505013412652 
-0.0122917690263158 0.02564418136326794 -0.007577893133770418 -0.007539326395435646 0.01775863112087583 -0.008871914815752275 
-0.004552297637587374 0.06702367975955038 -0.02853930227704703 -0.01718536692244366 -0.03222994209072503 -0.01149958991539237 
-0.01095547144777847 0.04807373760755147 -0.01546440523185143 -0.000490978757331851 -0.02434405549604617 0.01862955126715917 
0.01326737683818252 -0.0005781481518851187 0.0002761207198515291 -0.008345412945354687 -0.004650387598008822 -0.02268661429331849 
-0.004163671857934113 0.002907106617574504 -0.02283036236753816 0.02630352303687122 0.009331228355569978 -0.01289369271331823 
-0.02039577372677132 0.006926893619928778 -0.01000648604000364 0.00835082588902205 0.008628588969499877 0.007687347061437129 
-0.02747148241204945 -0.01094859744309561 -0.008480098258764645 0.04061090644874694 -0.005020344007607667 -0.0002248258161183699 
-0.005115583739903367 0.02837625545571595 -0.0227777296493455 0.008641963218120986 -0.02156817262461402 0.00935862866493768 
0.003440458192433037 0.04351826493847938 -0.02282400591954982 -0.01650694634731968 -0.0385075658527464 0.0209564382060992 
0.01452214189678841 0.04004028423643176 -0.02440267532449768 -0.0252836789123179 -0.0298602378107859 -0.002163245649178642 
0.0451061512204948 0.02055195259364689 -0.01805742058027992 -0.02641593856176253 -0.003909929172014624 -0.02448849552579341 
0.07577472145231483 0.03463050336621553 -0.01135460705852118 -0.03520191354525234 -0.04347439670598496 -0.04200654574010151 
-0.009371113748904834 0.0326992001558855 -0.0421557209591032 0.0315325359629962 -0.01770865458716131 0.003087148008764682 
-0.05161409370092031 -0.02466804856680657 -0.01111230958247593 0.04459472485710497 0.03197621390700837 -0.006742792888840449 
-0.04047137586170699 0.03178434581762149 0.0140167580364655 -0.02592880258449022 -0.01236580451891538 0.01243401839439601 
0.02255178071918904 0.01713059873555443 -0.03308616122581962 0.006113875700841325 -0.01535443817189075 0.0009908204987909828 
-0.01983855128604734 0.008110548146708207 -0.007365082248339721 0.00360882044568937 0.002277549302896846 0.01051780225538934 
0.00620210946825963 0.02570100293932389 -0.04190614549367499 -0.008549518176746511 0.008681816938943791 0.002863680246598738 
-0.0271215674758841 0.01234256497743135 -0.0364786969090386 0.000503568003578674 0.01580412146507533 0.01722820201055405 
0.006365308868166889 0.002149287196847674 -0.01237986484415138 0.003561647801753276 -0.006326568616874848 -0.002642857319239171 
0.006640873786578284 -0.005420830516330323 -0.04761078226796642 0.02864798712682837 -0.00357860123663689 -0.0009117426101027774 
-0.01499588512060501 -0.03147408440580117 -0.03752657127007413 0.0522423182006752 0.01567581935854434 -0.02893536821198609 
-0.01822950540727535 0.003297301680365553 -0.01409218481877271 -0.01160133348257084 0.03428020316504835 -0.02623025273964541 
-0.05851413117968444 0.04282350704714831 2.430067794178538e-05 -0.02312831024506719 0.01979715522571825 0.0009822004521159496 
-0.02606846008922805 0.009024959644222383 0.002258761745324258 -0.02926625682365155 0.01670839981907895 0.005770254696327737 
0.03780145732548192 0.005972903024087842 -0.04391111117243328 -0.007240779811669898 0.003414405561570312 0.003070799208610789 
0.02468035559250313 -0.004639509372848301 -0.02089345452492326 -0.01092927131846916 0.005163463514964783 -0.007876161482314405 
-0.03730277442034716 0.005270559248067466 -0.02309701118788337 0.01240194740423462 -0.003858494924885763 0.03123715970574599 
-0.03327713215618156 -0.03136352861969648 -0.01981001447847459 0.05216736510263742 -0.01008271931875447 0.02487831867878417 
0.01617811350919907 -0.01503008896651749 -0.03190975876795613 0.02569707950617678 -0.0471800051096367 0.0002741576935223631 
-0.001611241351846858 0.01805761909480162 -0.0005693167307857418 -0.01975490755119229 -0.005354211969387217 -0.02878209641265838 
-0.02668174770368984 0.03695216025262276 0.002823891988556787 -0.03078666129809687 0.03126251808551855 -0.03272358596348108 
-0.06078421581503963 0.002167480466175006 -0.002602455434875427 -0.003415803986721189 0.05380879225659225 -0.001416651184639523 
-0.001905449084485038 0.02478239751676767 -0.04685000166978655 0.003760736644288058 0.01635301074551436 -0.007434521747462677 
0.01835086054675023 -0.0006021986555812909 -0.04765219728821737 0.001457236934601316 -0.009718474873126432 0.03500276378682027 
-0.0227028178885279 0.01515296339610105 -0.01707806150821017 -0.01123179651685206 -0.00629953264987214 0.03597230375500737 
-0.03787702596252018 -0.02123344484083373 -0.01274076420190406 0.04107227241599256 -0.02253366114310188 0.03545681796850856 
0.01408224833526843 -0.04322894431904444 -0.005541402154848976 0.02422615903162797 -0.05812558933613782 0.004618894835232735 
-0.002594271217489869 -0.006638995186758897 0.006014931936929736 -0.005438635614817691 -0.007096150445877603 -0.008662223472231934 
-0.01219238222300773 -0.006585580605511529 -0.002317183143097402 -0.01089429452551693 0.006240502686109491 0.001320418218264798 
-0.01371765537177478 0.03315009940293607 -0.008945364658951079 -0.02804921382762071 0.003946933027183634 0.007322709301415979 
0.01259107861373513 0.02774744836702822 -0.01498669162786058 -0.02701378125160162 0.02585654802937726 -0.02082177387853629 
0.008491677533349517 0.02545754293682765 -0.05779817454864253 -0.004599973711592546 0.01977312860627207 0.002107021629034724 
-0.03970062414172323 0.005654416162742213 -0.01707368343586401 -0.009570077163393207 0.006515562872672294 0.02372365175627638 
-0.02989548849651192 -0.00412830434876724 -0.0388105582586226 0.03232965232969676 0.0002742398095824885 0.01247415896068678 
-0.0126627421153088 -0.02280282085525103 -0.04277740681761463 0.04916586255880245 -0.02052435808431777 0.003581755145394264 
-0.0259616928680857 -0.0233898464834581 -0.01397223477966887 0.002053007620166572 0.02833891353487712 0.01994173412003894 
-0.03938610785241489 0.01179432134067031 -0.0004982378124889177 0.003604182381116858 -0.01278060833258885 0.02728114458336248 
-0.01963056882015576 0.05208069938832473 -0.01434654816458276 -0.03342309124541627 -0.009498493224836792 0.01255250419661583 
0.03015724345422268 0.03106496056326357 -0.001810366918839834 -0.02822120665791555 -0.02801589062171672 -0.02416040807633181 
-0.005357963243361516 0.03312128275019764 -0.007280551419182809 -0.009986850454905801 -0.03150344158344243 -0.008350173689883247 
0.02595663220645443 0.0482680345604903 -0.02045971963244924 -0.04578030964817171 -0.01936033978332797 -0.01136790830321655 
-0.006149204024465797 0.02991921642407142 -0.04117965591994476 0.02577716898262893 0.007746566322824327 -0.008278968955556968 
-0.007734956842941478 -0.01050978867134085 -0.01328729663750264 0.04587882494328526 0.0005432013684542546 -0.01502887469977453 
-0.00406389819795 -0.002757818788198252 -0.03233420235882661 0.02933503556021146 0.005865226022381555 0.0006918858905261175 
0.0007341250760726367 0.00485792189906087 -0.02273528750653506 0.03390899376806379 -0.01623540783204196 0.002774099949529911 
-0.01019170328418785 0.0195700797450907 -0.02247757968409591 0.01038610383199513 -0.019563902539412 0.01967458124667841 
-0.02220513579017629 0.0537803794025734 -0.02381007226309432 -0.02228144420656839 -0.01822690128142435 -0.002097998431457475 
0.01046287988693302 0.0577507602008927 -0.03475946614935697 -0.009735743478339698 -0.02466780360371097 0.005723171547410994 
0.02175137560220859 -0.000272796224252323 -0.02163914341498337 -0.002029840739079028 -0.02079962754727618 0.009935272167427416 
-0.008178308860028292 0.01740344787074978 -0.02827051845146364 0.02674911847593472 0.002407739087806004 -0.009578241570626216 
-0.02985287551934405 -0.007668073996851157 0.01220630843914387 -0.01115518646781264 0.03586470176001869 0.000233395623445882 
0.004146293738303022 -0.001916326822713572 -0.02579797807619231 0.02621220512632541 -0.02077558442273006 0.002071478112757705 
-0.007946091400668714 0.002428604897468334 -0.02085943072797198 0.004303396248533111 0.02896395587852186 -0.002461285787572165 
-0.01291219837240706 0.01557371021241927 -0.007649718439997969 -0.01092879336591796 -0.005142791300852352 0.02293729439516667 
0.02182784532811681 0.01136204969098971 -0.007756861522594173 -0.02886011812915406 -0.01463665576806616 0.006318240603975524 
-0.005104540547845662 0.08531440441891319 -0.01641935140898638 -0.02217981395748076 -0.0193817908858162 -0.01973593864463689 
0.03823823854817173 -0.01436047447316958 -0.0004737241643879394 -0.01018835579253506 -0.01607534653468288 -0.01185966753140969 
-0.01461132027024978 0.00773177402062064 0.007241142192565863 -0.01561876233925061 -0.005767899468311356 0.01176230881854757 
-0.03016345518668494 -0.01628284887485234 -0.007332617885828079 0.006964461497434751 0.01951349938767992 0.02507751658182166 
0.04191410725934415 0.01313354007966006 -0.03050253938459734 0.02762248884177158 -0.0264283797453912 -0.03282486807699662 
-0.002506930626843997 0.02847500345383288 -0.04376643807308805 0.020786425372645 -0.01543802329649521 0.02659684253268828 
0.008307937212917582 0.05517788754020541 -0.03044491301867844 -0.02405606538847206 -0.01192709748913717 0.007467142274674986 
0.006206000681025925 0.03552478652962366 -0.02368731469862656 -0.02127069813729665 -0.03205203246007709 0.008650857629782696 
0.05036591605509061 0.005197370959096369 -0.02176033334113284 -0.01499976476729562 -0.02835408865778546 -0.01516328622428747 
0.01112744132007436 0.02615829194375859 -0.01025380773066534 -0.03404641768167486 -0.02134419103912128 -0.00434267265523337 
0.004554424539031098 0.003670373904453397 -0.009227774935402692 -0.0005245438522033679 -0.02635805096855676 0.005082176699563249 
-0.004648966386960195 -0.01778719876992519 -0.02250974561097863 0.03619457747729291 -0.02045297684897026 0.004567233711838247 
0.008981322979968526 0.01915688620275996 -0.04372252096226705 0.0208210348400796 0.008583804422475253 -0.02418779968008143 
-0.008121179406283034 0.00324920755094358 -0.0363616079088878 0.02942639346367002 -0.001004531911397253 0.006715396937463487 
-0.01524159976475167 0.04336070825553243 -0.02151897572761215 -0.02265359466331684 -0.0006371788867338452 0.01348390481986221 
-0.0009220382683677094 -0.008325523925288823 0.0005084779412905539 -0.03576442085221906 -0.01506612353925531 0.01762922391432598 
0.03942408634639302 0.001258215159950212 -0.008182120468521861 -0.05535544543382415 -0.01630603814421005 -0.007831077666791107 
0.01496419454455784 0.02601840933671097 -0.02240526955204433 -0.007428924204160903 -0.005260958745844977 -0.01234871901639623 
-0.007701229164073576 0.0006951916509880851 -0.0550091717891576 0.05707298026063528 -0.002005734887677284 -0.006208990465239517 
-0.03701935184224188 -0.02095204239966467 -0.01318063662517852 0.01906708650236722 -0.004603871085245314 0.01283054925124657 
-0.00521474803126759 0.01621639619128382 -0.005386408625212704 0.01692774689660683 -0.02391705047055682 -0.02769544125395953 
-0.03154421197584523 0.03445168485395804 -0.01082575959395238 0.01575582386325411 -0.009868915907815363 -0.000551442752462871 
0.02054912636830968 0.03539568704005778 -0.02701371883869956 -0.02756461597473916 -0.008854126642891803 0.01026800997105924 
0.005150021402519568 -0.02819112153552469 -0.04094660071691922 -0.01932927613216152 0.03372451900085511 0.01865823836776707 
0.0294141298401039 0.003272578363953168 -0.03504558054062506 -0.02290824765131146 0.02297377627687256 0.004953238096432162 
-0.01265721072333197 -0.02589453615032955 0.02730356105605081 -0.01483685852460896 0.01732826130250925 -0.01692386048146359 
-0.02780406650879638 0.02024808755455738 -0.02508177040427358 0.02807514219046895 -0.011841172312665 -0.007852964644668219 
-0.03428720652856093 -0.01870311210845799 -0.01071047098485266 0.03577227613300922 0.004333670068213583 -0.007309776760698425 
-0.001133046554385823 0.03680689500136874 -0.01729429273827674 0.02362536202746943 -0.05013699191805674 -0.01313608822331378 
-0.0273522371678155 0.02086787168635391 0.01348874689827917 0.004836505964713667 -0.01337681121286772 -0.01830515656487506 
0.009538592020615059 0.005667089871662127 -0.01729504345327094 -0.02554884627614019 0.009241174807075238 0.008823198303339084 
0.04669062376206862 -0.00559934557253192 -0.05251711585612215 -0.02274432051872778 0.02355099433016525 -0.008860156006303398 
0.005456242200568052 0.002591663571292338 -0.03340254825479107 -0.01058990845733577 0.008929993328813063 -0.001030496837890054 
-0.04983796560415633 -0.03461186503084954 0.01940243849240503 -0.0002907179706205081 0.01077783946156403 0.01836876124403901 
-0.02679875028423292 0.01287301570297588 -0.0234398817515269 0.0182855528143452 0.02389248030264841 -0.01236058265404688 
-0.02582252051455835 -0.003299916326162763 -0.03869612469091779 0.03663947397749064 0.02875551124973166 -0.00816445297768552 
0.02193725707603061 0.004163462281886666 -0.0253116101069743 0.006005760074760899 -0.01137815822560563 -0.02392331096939176 
-0.004607667011235861 0.01892358606091571 -0.03453764366353774 0.02898259049058073 0.007088444667383021 0.001192663914411144 
-0.02666339657978288 0.01913090288747067 -0.01524361811707287 0.007199441205287846 0.0003911834628721218 0.01718320379949798 
0.007689386627189501 0.0007779380093217504 -0.01967045078546236 -0.02739275861035843 0.03511951223733915 -0.01433163930980662 
0.04428994468918937 0.0150839269811571 -0.009224520755628835 -0.03925400246996834 0.008879789526158465 -0.03121214738358298 
0.003649847780636178 0.001266868665917815 -0.02821290899627121 -0.002134337263542432 -0.000597711633810635 0.01198343267100709 
-0.00938694057663645 -0.006625866573827987 -0.03179603473291014 0.02666180559529297 -0.005339555441658706 0.003799710815388687 
-0.02929772797189797 -0.0195901341918546 -0.01576227734797371 0.02132960450192324 -0.0003770849396897613 -0.0002075991936525884 
0.008046290466411773 0.02463783515738722 -0.0336011115138809 0.01985188085982064 -0.01480077475596792 -0.02360619048054653 
0.008931846840695638 0.01172126241194909 -0.03224675749927088 0.01458306714425616 -0.02594636868613423 0.02288012444714789 
0.001499622061189607 0.03852888276930788 -0.01979500605237942 -0.01396559073882641 -0.01811692229146549 0.0008625776109907151 
0.01292001206619338 0.01820775018053368 -0.00308987395882476 -0.02261909261853496 -0.02568765562788753 -0.002133470929926186 
0.0148443705408443 -0.003221839158535428 -0.002549228016723911 -0.03713045003502207 -0.01038430755958895 -0.01669538287889662 
0.01220934479265412 0.01218851546068651 -0.01391625611989388 -0.03092611764000534 0.003232244648784709 -0.005891492553715357 
-0.01265479535936886 0.01755637698560094 -0.02074082485476963 0.02500790146911355 -0.01872475035977452 0.001018441904754343 
0.004410463828294475 -0.03265005572607076 -0.009443777784510254 0.02404341361621921 -0.005426105910633612 -0.009160590122674886 
0.002012264034803223 -0.0172674349833544 -0.000604057656157241 0.0266899989880727 9.403345831818927e-05 -0.01300061815226719 
-4.684742742532305e-05 0.02326497094334973 -0.03422594369107142 0.005662892384483038 -0.002950103432349758 0.01922544067933742 
-0.03542389035121685 0.02760410394047922 -0.01358746071264045 -0.01132007371995263 -0.01292054577687564 0.03348454213175985 
-0.02227573964419882 0.06102022543272453 -0.02988599346390351 -0.03037719622894134 -0.02329352130909219 0.018839253207943 
0.02916298907569327 0.05557879445491371 -0.04117868657188726 -0.0153104378725197 -0.02768824848704981 -0.003316947959821377 
0.05506935319765626 -0.01023536292202461 -0.006016133464893433 -0.02876584948485488 -0.03005853201763808 0.0128798821192764 
0.01343389599496024 -0.005372611879336086 -0.01227638617977623 0.005036309982901385 -0.009734745101675104 -0.002111810274134956 
-0.007154640722240583 -0.03108711747443706 -0.0005411029784914205 0.002979095299929991 0.04222065373178709 -0.02832063377411995 
-0.03144937789906614 0.02230332590887609 0.01457624901118726 0.004466251857215483 -0.03907132891955182 -0.01029232136484766 
0.004282217525116108 0.002038392693450436 0.01668421179799735 -0.0044921146908147 -0.01926342398984221 -0.00513854688263436 
0.005021212486024367 7.609255346559287e-05 0.008537112772232723 -0.01951517448566374 -0.004580295539363788 0.01584653469989812 
0.04653794275652767 0.002658737073996959 -0.01610094918649387 -0.006880819078170116 -0.03030304966361621 -0.008979214230151829 
0.0001900425406981034 0.06779793087667732 -0.02988852876503643 -0.004136396687759961 -0.0008319799484700381 -0.002270931354904471 
0.01955117824325536 -0.01356855813533446 0.0004474675842706454 -0.0223684227621736 -0.0006163848981395524 0.01731213246012948 
-0.004586159691472785 0.0133400089012854 -0.005663002812728823 -0.004300593056919775 -0.004103581583657414 0.0004088541226348927 
0.01852252150533413 -0.02801256207932214 -0.02235992336528695 -0.006750854020893489 0.01126222182846622 0.008835915731024428 
0.02152283917199922 -0.03765279276981735 -0.003051487064715185 0.02438993848121838 -0.03802638135921938 -0.002693674245068872 
0.02753089170959283 -0.01460027504620842 0.007856620164509926 0.001284558716899638 -0.03933184387610931 -0.001073330663239284 
0.02017995266743063 0.02836557212359201 0.01268141926128081 -0.03890223120376579 -0.02720063100452244 -0.009021156165364596 
0.0190578772324138 0.02834049130501832 -0.006609569311752918 -0.03207383092823448 -0.03420406997224378 0.001225029611311585 
0.006925382498264403 0.01743863835647784 0.01050495284721747 -0.03334793864426122 -0.0259221806173096 -0.005851770997736984 
0.01743087775809217 0.0231402248067652 -0.008602318182162278 -0.02541520922922689 -0.0447255110157126 0.01099356056600476 
0.03215518685900969 0.00111506580882394 0.02268978634679864 -0.02227734351563767 -0.03694963384038163 -0.01264833723636044 
0.01795888820899675 -0.02166185243394813 0.004864734793455854 -0.004883745001445014 -0.02039947851908818 -0.008053381409078865 
0.005986542897410736 -0.05934900418995814 -0.03994873274840396 0.07855493241340364 -0.01864727244767889 -0.01000802911967569 
0.03512083417841941 -0.008482966792625748 0.03099529703040717 -0.00875670052164239 -0.03851052431644622 -0.01887600549799769 
0.02368937141746909 0.04251456334848781 0.009700601993390609 -0.02885452041959957 -0.04613718503142407 -0.01195684484035171 
-0.004176685422366253 -0.008216640775312695 -0.0202031122844009 -0.02387426852341324 0.0004222808552921487 0.03341533180908121 
0.01792131021997212 -0.008123371396301059 -0.01473766151267953 -0.03660683406463461 -0.008694098312667743 0.0147579233953428 
0.02472120267987358 0.01846942397819628 -0.02278724114979605 0.0002350472234129754 -0.03023590870961346 0.01268870455506516 
-0.004447636650128749 -0.02362553625354376 0.002468602518363554 0.0121355553343782 -0.02134503109296178 0.01740307938168302 
0.0187570900729817 -0.04441841147936219 0.0004688408166336766 -0.004384863846013216 0.01016922813005069 -0.004153708977158226 
0.03327338784571857 -0.04517864170066544 -0.06628160435579737 0.1055082117583639 0.001596014372151264 -0.05615108063571294 
0.04470194995968631 -0.03104760910103279 -0.03823350919092459 0.04360246219804945 -0.03016634381076405 -0.0007612560527616116 
0.007777127174320596 -0.01438406957073966 0.006267861041481958 -0.01786937506953906 -0.01566846932643797 0.01577706828748375 
-0.001291295468901943 -0.02357526282525957 0.005419948937760143 -0.04432321282550596 0.03121702908413292 0.01945241989067383 
-0.01214137690969519 0.007057611575264785 -0.008518126312658242 -0.04834930867483143 0.04230590161711406 -0.0003372305818327734 
-0.005641803808638266 -0.01873599200734736 0.0248265587602673 -0.03953213195563485 0.03459366984176156 -0.007913778939077996 
-0.0256027945855469 0.009016108236400115 -0.00837185492556059 0.007067840400327108 0.005798860374575626 0.003433805138780964 
0.02220013247187381 0.008963599534335034 -0.03680493662418934 0.006313557765634441 0.0183222569487155 -0.01967409125978709 
0.03593002703966801 -0.03974421598568093 -0.04359005492074037 0.05516278367639278 -0.02279627231728676 -0.03616262383808955 
-0.0007818773709625644 -0.03728539163388449 -0.05224096118669157 0.05847700375983127 0.01846301490790293 0.009861061038455937 
0.02142707528338465 -0.00496385684614481 -0.01690401800890598 -0.004929792704704105 0.006747671669349252 -0.002215353915262365 
0.008868582354425532 -0.01301982763850611 -0.009131812040019567 -0.03251533015339034 0.02756623387195664 0.007004973219696065 
-0.01402728015687233 0.002526019984327344 0.003318102810105356 -0.0407120155268063 0.03565224941997251 0.003674262813784103 
0.01275105061767281 -0.03972016522336678 0.03853018021119079 -0.04448333397972903 -0.004853467649477681 -0.002685382663020351 
0.009042449481961642 0.02014208234981423 -0.03547677962500795 0.02252114765820529 -0.002011940338341316 -0.009221077133994544 
0.02428598425561175 0.03911775970591211 -0.051226393650281 0.006129581110822094 0.01029496901547677 -0.02872955449471493 
0.03388873511540939 -0.06547735002182252 -0.03313911544583034 0.06509764534919595 0.01022424145613134 -0.04485217992247598 
0.0001625666626410461 -0.0204392433602041 0.0009839167337766632 0.006165738580758532 0.005018498986168686 -0.002832818469448353 
0.01479800896535779 0.03202405732990022 -0.01849675716854327 -0.0214387390239843 -0.0251158745911382 0.01061353165154833 
0.02040433019423413 -0.008321480618615073 -0.01464886730670888 -0.02223085765748462 -0.01405092242831313 0.01529345218681571 
0.004290981110559512 0.04669140510941508 -0.02310465344179072 -0.03014068126550463 0.0226272272502518 -0.02368076655020478 
-0.01067807954884743 0.01938627990750964 -0.002351221224283533 -0.01596045613489538 0.002280016589431765 -0.01267919742237173 
-0.007184928136900956 -0.01160514183394943 -0.02886123295482592 0.01215328227098448 0.009807387437778989 0.02317146161209658 
0.02918449009998533 -0.03299650297039872 -0.01996796739728124 0.02627311769804997 0.005108758978225113 -0.01062132717873197 
0.01391367509399789 -0.04616730868531085 0.007709411716908573 0.03585141611512635 -0.02451272757886146 -0.02943487382468214 
0.04064446537101192 -0.03417615750633872 0.02493545325348392 -0.01009075272744211 -0.03570427678190641 -0.01425275946518101 
0.02152323360644659 0.06377046654808359 -0.01055484521648805 -0.02992113888756446 -0.05207539764342534 -0.008493458618811902 
0.03738780271023191 0.005842154582296266 -0.01019565700748244 -0.03091845307091797 -0.02487787580799905 0.008250941373448261 
0.04862021396204474 0.02056237410512764 -0.006786936619099859 -0.03144072115645483 -0.02113740193479521 -0.01076777498617414 
0.02024325872099689 0.032274985532983 -0.006798236444846495 -0.04164099334765994 -0.03117930720692503 0.02249567300772379 
0.01658353806313327 -0.01898049959098566 -0.01125558489341883 0.01799326560714644 -0.02230321609348888 0.009609613208015014 
0.01530366329317516 -0.01037129072286583 -0.001952965470775059 -0.02670119180384669 0.02864327744833381 -0.02557093519370394 
0.01200812318489944 0.013617450355399 -0.003994877899254217 0.01034383191782473 -0.01573541732891463 -0.04236162456643066 
0.0253867794076729 -0.007959003203837958 0.01355930150088315 -0.001682277556005399 -0.03078369783528081 -0.007018833598699226 
0.005790598474163499 -0.008978105512042155 0.02730250738430898 -0.03036817824043593 -0.02052596459524481 0.006416638027298228 
0.02840970193551165 0.01886252709966 0.01216438886559136 -0.05038963216744306 -0.02715162431363567 0.008365760434072549 
0.006167236522223836 0.0272501666510429 -0.0134946430654522 -0.01314185952646986 -0.0005576072416055127 -0.004455774739131882 
-0.0007903170441883666 -0.01764239745691166 -0.0115703852950879 -0.005115916168205625 -0.01509641182866723 0.01937198281570664 
-0.02186299051452781 0.008255884591318759 0.001216028660545476 0.003664301367657372 -0.01404323304244507 0.01417154870151155 
0.00507490915015818 -0.03493638718189729 -0.007423200153274694 0.01305231909279693 0.02538257890025657 -0.0114327640556238 
-0.05072838305282847 0.01630789874479058 0.01318141024007679 -0.02540360529467369 0.004814865626589516 0.02449085935152445 
-0.0169149385245476 -0.01939714552019382 0.01096699945822929 -0.004506075784532715 -0.0123397734856495 0.02410106672877743 
-0.01162105565473386 0.00164210600861249 0.01338301628118865 -0.001973421231333595 -0.02540622761748808 0.0221352005692167 
-0.009871641853695129 -0.02191078991683068 0.003135198592303634 -0.005853768779553489 -0.007476030041816233 0.007714284622785317 
-0.03176010482689775 0.02391293650290694 0.001039227403457486 0.01149219475334554 -0.001096648714223129 -0.0001556480285750498 
0.01640564753398687 -0.02628778158283399 0.002851796589823423 -0.009069130715828631 -0.004908542029249674 0.0008613717006008208 
0.006789749290588766 -0.02634676045232753 0.01884037122833877 0.001021514970940813 -0.0005077298624094307 -0.01842105572975875 
0.03919166992520727 -0.02200153956237521 -0.001309595756767481 0.001616624595336957 -0.004341138847864145 -0.03636478063369569 
0.00525306551783093 -0.0287611207264659 -0.01770584180989825 0.04121570058500439 -0.0341835768123494 0.009951802980144012 
0.03441801720278048 -0.01853803209490767 0.01654575526565809 -0.02360449748182056 -0.02761938017752532 -0.001937370793550755 
0.00481608601805936 0.007041996992821511 0.03067289420261376 -0.03031037686046454 -0.02951713985736286 0.01199979426521439 
0.0127528833009765 0.003166879732569523 -0.007408539459645354 -0.02782103115860297 -0.02515748303114723 0.0162243719707159 
0.009835876140307159 0.01092877120978743 0.0084266125487013 -0.01914320544872133 -0.008199578976151745 0.0002720393242479804 
0.04086513151124387 -0.01902703492511524 0.01552818402605406 -0.01747187730657423 -0.04544407435693948 -0.01109239591638871 
0.03409203282364889 -0.0233462715500898 0.03630460792662637 -0.01775169356665432 -0.04321521049697044 -0.0002259816105371194 
0.01722553878980336 -0.02192628676980212 -0.005880543508185069 0.002516019619387002 -0.01214063316424221 -0.004093245097953536 
-0.01362115043583521 -0.04208744803906263 -0.013149036536968 0.04638571452120962 -0.005112862427479352 0.01880336818002137 
-0.00283049981342456 -0.02333347205633448 -0.006537575660312194 0.0100905915948914 -0.005092874024210414 0.01983747669849105 
0.00359211747848363 -0.001651161755224695 0.007898800493829263 -0.04029991618183488 -0.01788240309112972 0.02253686182803375 
0.04653649600549015 0.001950952134326101 0.002731989997630663 -0.03606299221806276 -0.03765687402183863 0.009101126956401332 
0.02633904246097879 0.009281465415417274 0.008533310193232604 -0.01742863809712361 -0.03297052462218471 -0.03050247017650689 
0.0523279778052943 -0.01189495513226539 0.005051845212540003 -0.04264622028554127 -0.0123854922348727 -0.01517327138025027 
0.0402161028934346 -0.02461345294920605 0.0005240718129690837 -0.003546196690519915 -0.008969938880735856 -0.01065715932989224 
0.02005608518352214 -0.003181671263231411 -0.0121245222186747 -0.01908908724083952 0.01524173367238325 -0.01513983827363315 
0.004326817902400038 -0.02914925920197151 -0.006663261311187855 0.03130591839306989 0.004560002900295801 -0.003220129258226194 
0.03950705610690815 -0.02766799682070775 -0.01799069560934146 0.007189197558072667 -0.01888901798724556 0.01108373075930843 
0.003275613285075875 -0.0007535132027908108 -0.001953108335816382 -0.01040404274536593 -0.002545202771250972 -0.001694325873003989 
0.01346076050850798 -0.0265402721913258 -0.01762975190853257 -0.03459327694666472 0.01856670359967545 0.0232570575827597 
0.02111495240924279 0.02561998606874544 -0.02692938750055121 -0.02880707224403327 0.007316725165411415 0.008121542338629826 
0.01470392164185692 0.0330861022786879 -0.03390318787227963 -0.007616065812175013 -0.01372896777827196 0.00869545244120362 
0.008727944001866099 -0.0009483010090683701 0.01821178721300581 -0.005980776284032596 -0.0001009419669050444 -0.01464827773352433 
0.06090024171523138 -0.03387223967581318 0.0303000548934821 -0.005076813346607155 -0.008867211902645491 -0.05016891869624936 
0.01659012460868588 -0.01654060742669086 -0.03041859974903821 0.03767594482306467 0.02353492908851963 -0.02000972939058591 
0.005031715140949802 -0.001230097417293607 -0.01638219403460436 -0.002978232315032575 0.002588679801067963 0.01416385710634355 
-0.02481511629904459 -0.0136259360504608 0.006083749327913074 -0.01736151663844705 0.0109200144345881 0.02040244011640007 
-0.008712317948772905 -0.002308712373297815 -0.01879947545114934 -0.02360217250590189 -0.004739403568311989 0.03506509693563972 
0.03578647192000191 -0.005686694275615093 -0.03121979385852727 -0.004111303360246791 -0.0267969816733314 0.02762581111213986 
0.001060094941104323 -0.01046368567420512 -0.00489293070439382 -0.01327258761874368 0.03162465018273097 -0.0005845838646906967 
0.008987064211172298 0.02517603124390376 -0.0093138408478985 -0.002090035494465688 0.00712401692720174 -0.02477260613818916 
0.08056419474264782 -0.01671668771996869 -0.001208725485748079 -0.003400746922094919 -0.002023940249985375 -0.05906839128762394 
0.02850775962985954 -0.03717429286187261 -0.02006393856264966 0.04148725650896173 -0.0194107880106068 -0.002778876407122102 
-0.004583613579817911 0.007084449834918372 -0.02142712920532665 0.01173019671050954 -0.01185565380117708 0.01342795090801896 
0.02121929513439227 -0.0024367723872155 -0.01580283428826829 -0.01552876826482687 -0.009467115441859193 0.02285818399101845 
-0.00261344795965776 -0.01931959940121154 6.868829225468362e-05 -0.02706759061454796 -0.02093832434015689 0.04181874549194068 
0.02271473484394275 0.007190271043288252 -0.0003031317882770775 -0.01746684303168471 -0.0008247353536564479 -0.02622529068659166 
0.0282555099634828 -0.01889547875910577 0.0141233689940909 -0.04065779249266253 0.007992503727570417 -0.01329424549282187 
0.06291360586053636 -0.01047511128852894 -0.02173900661765845 -0.001619960575285539 0.0002130788780139964 -0.02028552568235236 
0.01839465049616728 -0.009580289601279096 -0.003807340815046139 -0.01093749391473281 0.01785075197562823 -0.03051908151619744 
0.01049222606965969 -0.04266181267540195 -0.003761266130027044 0.01534447410902606 -0.01159779043281406 0.002069619517107823 
0.03829396314519234 -0.01591925730035031 0.001225563727697879 -0.005396772659324665 -0.01692251828234239 -0.007718190972663594 
0.02488065484037932 0.02971576403006083 0.01595472887784944 -0.04573563699416631 -0.01917909812945868 -0.003267323314437996 
0.009470295925546938 0.005091192133675241 0.001979623927022031 -0.02719176469008382 -0.0302494260956459 0.02178581070023391 
0.02470020639925255 -0.01427912150619811 -0.01264215897950791 -0.01174856795705811 -0.02326379507804436 0.01912596935698712 
0.02885645206225854 -0.007789811313109182 0.01285669429668503 -0.02417860235477801 -0.02683345870433713 -0.009347370433991869 
0.05107526317394576 -0.02814716864023533 0.003405474503981661 -0.002102813447148915 -0.01569253196589857 -0.01401719538356051 
0.02720072690580651 0.008470134048650988 -0.008653579898438001 -0.01425099460432776 0.0251927834092007 -0.04295759757330837 
-0.04468964641556992 -0.0148458292643887 -0.0008899981840013547 0.001563330196853301 0.02230223897139756 0.005178983377475938 
0.002361068004242183 -0.02208203783855391 0.02277929988791514 -0.0179667905970797 0.002404108711165299 -0.001152908248778943 
-0.0137960121198334 0.002918268709249264 0.02269903771086354 -0.02844454368203378 -0.005748216774306269 0.004482214546892858 
-0.002597576018775534 -0.02423044432880811 0.02004716856201979 -0.02364197040747823 0.006729837620792991 -0.001327243145256857 
-0.02239545029646526 0.009130318317976428 -0.01697550429068753 0.01676324958788124 -0.02738569030469257 0.018032116820451 
0.02418660627072473 -0.02828130225733422 0.0185729406584915 -0.004820659787343771 -0.0114665252659028 -0.01256825381851001 
0.02225056129568967 -0.009208657286852096 0.01780268102622391 0.0009641273630972562 -0.01888876664510546 -0.00616153524590842 
0.04743528100170941 -0.02560519848598695 0.003851766823419487 -0.004708014125808312 0.003435307470958784 -0.02515846271365643 
0.02490429192037158 -0.04136273562250622 0.007899578298325468 0.01220240993062304 0.01789781979529893 -0.03770502243199754 
0.003202036933037271 -0.0363352633609503 0.02481144145789355 -0.003181865378536696 -0.01258372939223558 0.009393137178664128 
-0.01359821327493927 -0.02671467142362775 0.02445697534242 -0.007933307982285236 -0.007235599247332762 0.01713182618066999 
-0.004219976802242994 -0.0406368796482693 0.01682301717263065 -0.000413821497715581 -0.01082723762003824 0.01981893141009972 
-0.03302212100285785 -0.007893715018253365 -0.002361383778646959 0.03079600331397388 0.004290016799436492 -0.002963874763564194 
0.04001119207969354 -0.03433096568845401 0.0211979354184628 -0.0147887877289384 -0.005090531175987313 -0.01590562062620419 
0.006136003087123264 -0.01205416828944676 0.002113192843754168 0.01019323233917363 -0.01724462449364369 0.002213791996838627 
-0.003883191975265744 -0.00167348588486054 -0.006091300278085295 -0.01831936624794933 0.0007125626697614336 0.008433760280617927 
0.02527260113519305 -0.02899335478350662 -2.678007371106862e-05 0.008068816463852251 0.01265904840013332 -0.02060374558071969 
0.01017997089500774 0.001843556080317838 -0.005283874710317109 0.0044820685347 -0.01390771139036697 0.0003218489319376017 
0.003650861802919055 0.001822552313468648 0.007905879663783269 -0.01459531952253379 -0.01391465486881958 0.00483766771318828 
-0.004059498731065135 -0.01260451676688929 0.005561300610441382 -0.01139462081987129 -0.01134312263828215 0.01289744889212834 
-0.02614245738955396 0.001921934678877109 -0.002338334549319194 0.003229155774300935 0.02108781932015118 0.008716920410401664 
0.02233413938217194 -0.02430098926500104 0.02604112893286677 -0.01886993726218823 -0.02550895570363887 0.006879044511977946 
-0.001735191307059289 -0.009187281424060764 0.00077422016357204 -0.003715994079615142 -0.01953173833641191 0.0234565768361169 
0.009655101324690473 0.009348541359553229 -0.008677786480138354 -0.01881043281112182 -0.01383550027017086 -0.000343729640584843 
0.008118628812209594 -0.02470019164807703 -0.005750499559824901 -5.161813487448772e-05 0.009082088235721332 0.01307646553733794 
0.002372933494693598 0.00183155418273445 -0.01700962595666463 -0.0142398146438856 0.01952812310462798 0.01273408543746644 
-0.01659610797549669 0.02044636984935523 -0.008637676413938566 -0.0156691425632973 -0.01761451806062944 0.02893947956527471 
0.02050756999509271 -0.009513048271776589 -0.01440257523781763 -0.0189027829397267 0.006121359369266649 0.008159032666737939 
0.002323936925771078 -0.01087045641406392 -0.0375759866160256 0.02189570796434237 0.02703218622012074 0.007628379035641543 
0.02365305931065199 0.01868739342244064 -0.01832357773860554 -0.0286069403302158 -0.01768533447136341 0.003867790506643504 
0.03661340928722559 -0.001719619740492485 -0.004393384627638582 -0.009980629315492821 -0.002653949038268588 -0.01550680539957415 
0.01954010042658341 -0.0283898018658195 -0.006665963054957987 0.006632633654688075 -0.0004172903795135633 -0.006968820475460623 
-0.008331129325244152 0.01574580295297606 0.02161611389783979 -0.03089952453337366 0.03629860677391679 -0.0298672038763724 
0.006304637519320587 0.03108205039705077 -0.0115542707014733 -0.02806662468250001 0.01371883312288433 -0.004331291216988712 
-0.01665238033694474 0.01954758312626425 -0.004326236761180108 -0.01171067642947721 -0.01588917834971293 0.02570456594135075 
-0.009034705030654028 -0.01893064989127706 -0.008599213312267149 -0.008908364173268209 -0.01051135421390163 0.03135590557656705 
-0.01037193288914423 0.01138130155817782 -0.02352991065221199 0.008406986175020576 0.02040764026851978 0.01858095665874952 
0.02270693015129009 -0.003152015548853142 -0.008862839129969576 0.003070726513677821 -0.009746619534638627 -0.01256850629605424 
-0.003314883007655616 0.0188383435087325 -0.0173952749693971 -0.002328382947704461 0.006914922841926662 -0.0129148894953176 
0.05092168348612369 -0.03837215852853666 -0.0245669472431759 -0.01382518121768834 -0.003988515934721838 0.01214631942278386 
0.007809857024394869 0.03464463343183617 0.02882172025714638 -0.0543472760917712 0.01082994733104061 -0.01729955562574807 
-0.003904187368947511 0.01608254018728362 -0.01677950319577542 -0.02078016414024503 0.001648728823229677 0.01448498380026539 
-0.03429209752901442 0.03607367887073032 -0.01120654618075101 -0.01410658742284135 0.002904253959598157 0.01438128695863989 
-0.04222626141939578 0.008182901366593328 -0.002233433405633619 -0.0198662818515902 0.006376089444208592 0.03645385910951162 
-0.01296403930499436 0.01399447506235913 -0.01034365977867889 0.006254102481944909 0.02701831981294334 0.006431677083633772 
0.03040437647753999 -0.01986678309650955 -0.007180944342174819 -0.005059210550219736 0.0175663959836884 -0.01356665359494876 
0.02886574507009827 0.01169648945958877 -0.009842796480818285 -0.01407071275688778 -0.02108295727529925 -0.007034060721820092 
0.01448151715988497 -0.02084447198798763 -0.003066989080747755 0.004901124539866449 -0.0281376939422842 0.03369517545769108 
0.02953808827667821 -0.0151700117333232 -0.0005074605304515166 -0.01273377670508132 0.02282962092516979 -0.02341497760929857 
0.003082861980028484 0.01286795773605847 -0.01698804738264452 -0.02425324118652108 0.02977255389088437 0.004543066691684877 
-0.02185881078118206 0.01233837515974736 -0.0002442659610114649 -0.01211049703756756 -0.001938297694135259 0.01854910944635061 
-0.002771223221506153 -0.0198149263701743 -0.004158921139779043 -0.01855810299301417 -0.02528568195615827 0.03749259704180451 
-0.01606006344691072 -0.001157058453131311 -0.006681317375974086 0.02334642010332965 -0.0008950491923881808 0.002112172266991774 
0.0007920278138416368 0.0120397700052083 -0.01796670989895622 0.001337647312643979 -0.003186582894989625 -0.002982417712887698 
0.02825240705864247 0.005731717145364527 -0.01392447983556312 -0.01086509294434557 -0.01056510837624983 -0.002199639914048244 
0.01464079345914481 0.01020927382839925 -0.01767671515900981 -0.02672001477872352 -0.008677803222107181 0.01525161519336207 
0.01338696744362134 -0.01930188027237933 0.01050531222767303 -0.01781406948557223 0.008301900023978129 0.01247588660139562 
0.005514580722462198 -0.01014578186266481 0.0009925264119975943 -0.002103508745596801 -0.00744047387348936 0.009361783977735589 
0.01205932970737374 0.007995557449081226 -0.002924553580527755 -0.02170765251848016 -0.0195468787446016 0.02334701530212638 
-0.003828276357179758 -0.001262100967327233 -0.006409944182922764 -0.01049312783827656 -0.004676444697944288 0.008976609216139754 
0.01117338899866461 -0.01723743115196859 -0.008763061129334622 0.01958935801757229 0.01396168209903885 -0.004574030069080446 
0.03736756859012939 -0.02830062173163137 0.02427690632916408 -0.02048075797486633 -0.03272018383968221 0.001533553773427473 
0.03405821627294493 -0.01599846786368632 0.002926028401138364 0.01019417847746243 -0.02878068776321397 -0.005854384232553377 
-0.01819661311017449 0.005649206620618015 -0.002930878081246772 -0.01066874576850333 -0.008006349381096194 0.005770114890485737 
0.02898011376886578 -0.03063784317853887 -0.002034864364997386 0.007180917335415571 0.008519863828617517 -0.02055096770232918 
0.02334793103514265 -0.03079972795286138 0.01111087936689279 0.003197165205328372 -0.02551236868537508 0.002304571800150546 
-0.003220549305165502 -0.01300655828983161 0.01212784435949318 -0.005946495577128012 -0.02064802261401218 0.02109513747937282 
-0.03687209657508518 -0.03472730948501958 0.03437031664291233 -0.005295215303080305 -0.01617539292229983 0.03499690425481246 
-0.03317476715364077 0.01603205618408446 -2.190346598989069e-05 0.03981466751256892 -0.002527581578980821 -0.00466344397851645 
0.008493506825249969 -0.02231227359982521 0.0220764158908275 -0.01045205515362486 0.01537176141390315 -0.01322213408586331 
0.003054283527731411 -0.0146429602463426 -0.006714878260247797 0.003642248018428255 -0.002791259095640152 -0.0003370391696375844 
0.01937025746859925 -0.009524861270242126 -0.004359446515579114 -0.01442156148950084 -0.003240099065374288 -0.0075109892656817 
-0.00640615740521105 -0.002579532992777261 0.001469318854401003 -0.002098069605468291 -0.001939109672196003 0.008015720480403596 
-1.849678331001141e-05 -0.0002618229984874692 0.0006034125376121883 0.0001756740364237446 -0.000140199041839204 -0.0002065664655530413 
-0.004005924293140953 -0.000573492971513697 0.001701408344563865 -0.001801259945149031 0.0004670095506792618 0.002376585735146695 
-6.841357281785535e-05 0.0006974817631858443 -4.630025245912786e-05 -0.000239415675017335 -3.193740589293074e-05 -0.0001263473241583318 
-0.001545400911462813 0.0006662757873164003 0.0003740256933237454 -0.0006737741477812103 -0.0003595732959105258 0.001536708588895478 
0 0 0 0 0 0 
-0.001894954682892434 0.0007652810323593552 -0.0002342748918192188 -0.0005152725540938747 -0.0001944569511160482 0.001886134884739121 
-0.0002466035889765772 1.667804940667184e-05 -3.209872227264844e-05 1.015455905979122e-05 -0.0004559696100358664 0.0002624480530118634 
0.0005444347362546976 -0.0008348603032743761 -0.000171258039999403 -0.002023709186183005 -0.0008979791975660909 0.002339718700116766 
0.000615781481190321 -0.000325317164123468 -3.710961448630849e-05 -3.857666810263301e-05 -0.0002036512877659428 -0.0003732873669997686 
0.0005283682088261033 0.0004965148016403494 0.0002117757138228494 -0.0004182868622034125 -5.893380676525843e-07 -0.0004897933380488148 
-0.0003429481953208784 -0.0011411786701565 0.0007673395851296421 -0.0006102392499559528 -0.001068349090383714 0.001065395117784825 
-0.0007010083706577372 -0.0002837752730532562 0.0001268661538037223 -0.0003814661590262254 -0.0002073601807529375 0.0009711501769097252 
0 -0.000201123135563706 0.0002598867399225078 0.0001707079554352534 -6.337552660193331e-05 4.235164736271502e-22 
0.003013674255242316 -0.004807871036461474 0.003284382335974579 -0.00627801974357026 -0.001448841585355938 -0.0001040634693090265 
-0.00192368709502615 -0.0118977808079068 0.008048664580559967 -0.004902013686920357 -0.007233513829966571 0.009125595227514922 
-0.001402070012095648 -0.0008969451371194738 0.0008421576723026573 -0.0001602772101650279 0.001466210052502602 -0.0009830839768785139 
-8.298199595094667e-05 -0.000207695902632004 0 -1.690285701786093e-05 -0.0001013839016109274 0.0002654750113585097 
0.0001810736754884872 0.000488658848956205 2.246736332527163e-05 -0.0002448695527402204 -0.0003577619909450864 0.0001324071412258738 
0 0 0 0 0 0 
-0.0001822009508614779 -0.000704949893448136 0.001260748096749138 -0.0001037917093145645 -9.744872784095826e-05 8.470329472543003e-22 
0 0 0 0 0 0 
-0.0008824405790393268 6.554339011492589e-06 0 -0.0003780895509800011 -1.402827398303837e-05 0.001011611737278466 
-0.0004170783723513075 -0.0003382762017980282 0.0002598867399225078 -5.805337789167356e-05 -6.337552660193331e-05 0.0004883133835242035 
-0.002777006092145428 -0.001011369259559008 0.0002119180295964301 -0.000967436576949414 -0.001582913867491345 0.004693281279147819 
-0.0001062515051018947 -9.683455990661395e-06 -0.0002539073566690551 -6.060154930217787e-05 -0.0001424935185185044 9.978152279614805e-05 
-0.0002236651742429769 0.0003860567838634606 0.0002370848666380919 -0.0004932513219423039 -0.0002762461483175652 9.978152279614803e-05 
-0.0005350568196008015 -0.0001333135969006592 0 0 0.00114546680693059 -0.0006269604838412224 
0.0006812640823120564 0.0006796951278983437 4.17355151002771e-06 -0.003714731792320809 -0.001489978112625689 0.0007839854604516058 
-0.0001021335300397808 -0.0005520898812804573 0.0005339098323074085 -0.0001958848606659664 -4.909077608101869e-05 0.000166888291566879 
0.004275007628981384 -0.005451899316201604 0.008441586281514786 -0.01367075795191634 -0.005487652360976021 -0.0001254541630628434 
-0.003895053721879584 -0.005423003785307735 0.00598840828360174 -0.00326996260115744 -0.002275647495224933 0.00379107790804982 
-0.0008770456232307304 -0.0004533874878325687 0.0007764467514587899 -0.0007473536008383758 0.0009444747666074137 -0.001944673208018018 
-0.0003200960106171081 0.0003420597945581853 0 -0.000179197955588765 -2.892122971449213e-05 0.0002208868855836243 
-0.00237439902644821 -0.000491568293235577 0.002111261259060105 -0.000809828126343102 0.002316535078619777 -0.0007224188884978659 
-0.0003952675646125385 -0.000330510212692884 0 0.0001326191556149732 0 0.0005651975130973007 
-0.0009077386209905566 -0.000283837560199853 0.0003335422946504989 2.993001993817115e-05 0.0009921422852345737 -0.0003623187665912414 
0 0 0 0 0 0 
-0.0005649916696154872 -0.0003901748947024388 -0.0001458648172455105 -0.0003246997915632441 -0.0002101067569971704 0.001103092451281408 
0.0007936186017297275 -0.0002603011580979341 0 -6.769319347451805e-05 -8.944450886122134e-05 -0.0002459829966223068 
-0.000341104046067698 0.0003540927599100051 -0.0001460490995231859 4.844321667062577e-05 -0.0001909557623324397 0.0004482996194455745 
0 0.0002013019050886524 -6.695830778818581e-05 -6.790317654901436e-05 -1.598566697660748e-05 0 
-4.053697888327966e-05 -3.816105476704576e-05 0 6.93793473047792e-05 0 0 
-5.929230630780102e-21 0.0002765610122251699 0 -6.060154930217787e-05 0 -7.127394521163461e-05 
-0.0006998389194317121 -8.398761832825835e-05 -2.541098841762901e-21 -0.0001962758600112856 0.001006503081489374 -0.0001328463851243074 
0 0 0 0 0 0 
0.0007340438139249174 0.001055652227463528 -0.0002788810797535518 -0.0005141277428288657 -0.0001789393253700488 -0.000351260621160625 
-4.428583672709958e-05 0.0003420597945581853 0 -0.000118985341907027 0 0 
0.0001315489621554609 -0.002188388271362228 0.0007702247795604189 -3.140965324882958e-05 0.0009870167883216075 -0.001463664790347025 
-4.455928204904686e-05 -8.458829398674518e-05 0 0.00018931004175522 0 -2.032879073410321e-20 
-0.0007601076708788209 -0.001127871956152391 0.0007707606644567076 -0.0002970955142198674 -0.0008375046212722013 0.0006896104539951792 
0 0 0 0 0 0 
0.0002198437304298313 0.0002645675677399465 -4.630025245912787e-05 -2.541557270852438e-05 -9.140413787709046e-05 -0.0002616838890765811 
0 0 0 0 0 0 
-0.0008787485864217886 0.0006106352359761093 -0.0001458648172455105 -0.0002875766784163018 0.001123833517131682 -0.0002899529278798908 
0 -4.596125439776603e-05 0 0.0001851732331311292 0 4.235164736271502e-22 
-0.007089526435762598 -0.006890691928468848 0.003013808509086319 -0.0006590878219560759 -0.00301336628105359 0.008731699818842054 
-4.053697888327966e-05 0.0002383999574581239 0 8.777798002601374e-06 0 -7.127394521163461e-05 
-0.001470126641180705 -0.0004374667326384453 0.0002865197606081512 0.0001011013154685014 0.00197940492005835 -0.0009246073121106578 
-0.0002758101738900085 0 0 -6.021261368173803e-05 -2.892122971449213e-05 0.0002208868855836243 
0.00201164882644795 -0.008761528478488455 0.00538461661505117 -0.007368605758373927 -0.009127745377379457 0.002034686690475414 
0 0 0 0 0 0 
0.01247956113238394 -0.007474818506241919 -0.0005442366735500196 -0.01448211743808863 -0.003376001251996844 -0.002862585718330605 
0.005004402962105635 -0.002125334518248437 0.001222393206353437 -0.001943513715118577 -0.0002190463689785144 -0.005151146689827176 
-0.001851210867107204 0.0004014915712182664 -0.0002486138469896252 -0.0002086832480966402 0.000135859174329582 0.0009791777981344159 
-0.0004238231393122936 -0.000183114320632088 0 8.903105541917556e-05 0 0.0004883133835242035 
-0.001477952427796471 -0.0002215953465073277 9.570329100392753e-05 1.606751558176962e-05 0.00114546680693059 8.442281137474151e-05 
-0.0001522395681101146 0.0004471441046107808 0 0 0 -0.0002274864832082946 
-0.000122778875345721 0.0001255666919732094 0 0 -6.308837446380258e-05 -9.021027619248442e-05 
0 0 0 0 0 0 
-4.053697888327966e-05 -6.544761823672906e-05 0.0001421357126426438 5.289482879450363e-06 2.964615315390051e-21 0 
0 0 0 0 0 0 
-0.0002321203391611022 -0.0002282924505288303 0 0.0003744832748863488 0.0006135377587941339 -0.0003818175698786141 
0 0 0 0 0 0 
-9.110047543073896e-05 -0.0003295837042876581 0.0005339098323074085 -0.0001958848606659664 -9.043767131208772e-06 0 
0 0 0 0 0 0 
0 7.930725018232571e-05 -1.987226253300536e-06 0 -6.969454316954537e-06 0 
0 0 0 0 0 0 
-0.0006972702736716108 0.0001130654229608334 0 0.0002988567844193239 -9.457731093473761e-05 0.0004564376577501879 
-0.0007758393732272676 -0.0005333742213468329 0.0006891134670821753 0.0001477002981199576 -0.0008216946028165949 0.0005488382034284826 
0 -0.0002721294271827196 0.0003209017044913244 -0.0001612589394672485 -1.247338125233605e-05 0 
0 0 0 0 0 0 
0 -4.596125439776603e-05 0 0.0001851732331311292 0 4.235164736271502e-22 
-1.881104427357796e-05 0.0001744279622716328 -1.778375977253491e-05 -8.113179428681036e-05 -7.151693156029632e-06 0 
-9.110047543073896e-05 -0.0004847455854535983 0.0007937965722299163 -0.0002103501383618422 -7.241929373314214e-05 0 
0 0 0 0 0 0 
0 0 0 0 0 0 
0 0 0 0 0 0 
0 0.0001136707209040355 0 6.617444900424221e-23 0 0 
0 0 0 0 0 0 
0 -6.912141907170665e-05 0.0001443840479655071 1.694065894508601e-21 -6.075401936608855e-05 0 
-9.784524239172523e-05 -5.302269206248833e-05 0.0005339098323074085 -0.000123867254353171 -9.043767131208772e-06 -7.127394521163461e-05 
0.0004650847901721665 -0.0001950363197641985 0 -4.329320963896796e-05 -0.0001389607171215773 -0.000437436261309673 
0 0.000194583781889368 0 -0.0002363620944126059 0 0 
0.0005463491080523042 -0.0007102481284626571 0.000501916031662868 -0.0004406481080658495 -0.0004247736677109203 -0.0001346689668841882 
-0.0004382477012843103 0.0002457081930988113 0.0001489708341872493 -0.0004618647102706838 -0.0001743799024710256 0.0005470119814216545 
-0.0009395000764293743 -0.0002579720896495486 0.001018150651568741 -0.0006443079960762311 0.0004786747635332256 0.0001777411133261653 
0 -6.92363642212545e-05 0 0.0001365326038081059 0 0 
-0.001091061119599262 -0.0004724316586360836 0.0004568648268141297 -0.0001785893001413344 0.0009122629372748969 -0.0001054988694070959 
0 0 0 0 0 0 
0 0 0 0 0 0 
0 0 0 0 0 0 
0 -2.329510723608506e-05 0 5.43545849270009e-05 0 0 
-0.0001062515051018947 -0.0003016242149908431 0 0 -0.0001424935185185044 0.0001710554680077827 
-0.0003383815822724794 0.0001622844703710829 -9.428517897266012e-05 0.0001065865429834694 -0.0002770031886604811 0.0004482996194455745 
-2.856855036493562e-05 0.0002567673681092261 -4.630025245912786e-05 4.310645405385013e-05 -2.048859027187031e-05 4.235164736271502e-22 
0 0 0 0 0 0 
0 0 0 0 0 0 
-0.0002684814275431952 0.0001668996530447635 -7.909079173500011e-05 -0.0002923034102007459 -1.115473349500663e-05 0.0002959119509979285 
-1.18584612615602e-20 0.0005531220244503397 0 -0.0001212030986043557 0 -0.0001425478904232692 
-0.0009343422385222628 9.096369774985543e-06 0 -0.0001522960642702438 1.694065894508601e-21 0.000613870232618144 
-0.0002500851981810775 -0.0003333157417765133 -0.000429264626117929 6.93793473047792e-05 0 0.0005483261285520904 
-0.00206718624548873 -0.0004050681090866836 0.002749005729611283 -0.0008075509328074362 -0.001086486853958394 0.0003642267482125389 
-4.455928204904686e-05 -8.458829398674518e-05 0 0.00018931004175522 0 -2.032879073410321e-20 
-0.0006247022352024557 -0.0008892166909738037 0.0007559721794121938 0.000108018492334648 -0.0006113200555431772 0.0006756079135458798 
0 0 0 0 0 0 
-0.0001646751637791392 -0.0001373678820760575 0 -9.204211851537079e-05 -5.045714652321711e-05 0.0001970730515247018 
0 0 0 0 0 0 
0 0 0 0 0 0 
-0.0005061716034466145 -0.0003892130436403884 0 0.00037862008351044 0.002323133576789151 -0.001809560307496695 
-0.01097325200771797 -0.02415892303813967 0.01346362791512275 -0.01284613280104363 -0.00224175197554993 0.01266832806592116 
-0.0001942110428407391 0.0004223354163982487 -5.495837685204972e-05 0.0001344982851409338 -2.117582368135751e-21 -0.0001402121714949596 
0.0004393205203793432 7.034696043353803e-05 -2.203234946596394e-06 0.0001141171852009552 -0.0001841825849276086 -0.0006197834618765353 
-0.001380287877251797 0.0001920596164023632 -7.909079173500011e-05 -0.0003200277906420385 -0.0001749700953558322 0.001384320920447832 
-0.004252893876143447 -0.007968703242883729 0.001070934337853584 -0.0001924649141242306 -0.002885838033225158 0.007369414573630328 
0.0001284853829699937 0.0001027538894191958 0 -0.0008878603466764978 -0.0001677804363707239 7.007992651540199e-05 
-0.001341748116529717 -0.006561951594438555 0.003721185142100891 -0.00156870577354219 -0.003730632652996489 0.002994032697113978 
-0.0001549565323201631 -0.001338659317187179 0.0002487820573989178 -0.0001728849864273821 -0.001008408561574445 0.001084756335059553 
-0.005475498029709344 -0.0002662736458384869 0.002147936139577799 -0.0005920986157474861 0.0008708122311744726 0.004012334149412037 
-0.001130291349110195 0.00122988557528234 0.000595039192601142 -0.0004870487492861502 0.001455675098919299 -0.001775769284973347 
-5.076643259600717e-05 -0.0001078713490743399 0 0.0002372206557968774 0 -2.032879073410321e-20 
-0.004591605272706693 -0.0008870376238764889 0.004428366877471842 -0.002643636108002784 0.0007248971828254817 0.001386182497576577 
-1.881104427357797e-05 0.0007340681432720537 -9.687455150753502e-05 -0.0002150441543400376 -2.929111670217238e-05 -7.857691699810042e-05 
-5.929230630780102e-21 0.0002765610122251699 0 -6.060154930217787e-05 0 -7.127394521163461e-05 
-0.001439820060880164 -0.0001247137229056735 -7.909079173500011e-05 -4.984632991086514e-05 -1.115473349500662e-05 0.001273235949401201 
-0.009475172793248585 0.002414703746836412 0.006071023764311583 -0.005701525717356082 -0.0007344352019179653 -0.002063046634213166 
-0.004242356581903702 -0.001252113889509787 0.003873038216499839 -0.001950813145531322 -0.0008261634621739109 0.00307806144039044 
0.0001210823134217191 -0.0006833254083336493 0 -1.812952659116783e-06 -0.0002432487142589501 0.0004043697775809864 
0.0001668864804724123 -0.0004903747994863105 0 4.564967839711714e-05 -0.0002185493991119459 -3.412460906807363e-05 
0.0003296080514083355 -0.0005645313169745203 0 -0.000159735311989889 0.001059398404273032 -0.0008063386810042092 
-5.929230630780102e-21 0.0002765610122251699 0 -6.060154930217787e-05 0 -7.127394521163461e-05 
0.001011399993372658 -0.0004282009074318697 -0.0001458648172455105 0.0001216168482807018 -0.0001649110513870104 -0.0006067276839193109 
0.001141862727003799 -0.0002777310555283901 -0.000147852043498811 -1.978257943286064e-05 -0.0001878216293029815 -0.0005044872714494953 
-0.0006799645170744379 -0.00878140880259305 0.0065038919476284 -0.006197377275553072 -0.00442969450634566 -0.0008173751020389409 
-0.001271668487392079 -0.00138687419952802 0.0005056715305730927 -0.0001826702632598033 -0.0004586230223124053 0.001693808683784262 
-0.0002348279923477602 -5.448139617883472e-05 0 -0.0001094816993575079 -0.0001423398316448794 0.0003432186342480816 
-5.929230630780102e-21 0.0002765610122251699 0 -6.060154930217787e-05 0 -7.127394521163461e-05 
-0.0003281660854514447 -0.001009969573815162 0.001067819664614817 -0.000163373434585 0.0009674260094388647 -0.001169632278963856 
0 0 0 0 0 0 
-9.110047543073896e-05 -0.0003295837042876581 0.0005339098323074085 -0.0001958848606659664 -9.043767131208772e-06 0 
0 0 0 0 0 0 
-0.002042023244924089 0.0006230736419670747 -0.0003574032849244662 -0.0006827857117201088 -0.0004407515997366514 0.001871066209877501 
-0.0005567908989171826 -0.001076089452531569 0.001040740716058509 0.0002472352308879497 -0.0008541505283935513 0.0007503720127550206 
-4.608597643459955e-05 -0.0001049202781629218 0 0.000234959720152337 -5.893380676525839e-07 -2.032879073410321e-20 
0 0 0 0 0 0 
-0.0006107940313599603 0.0003580085537788854 0.0003576405310683601 8.673697515867137e-05 0.0004258383748774622 -0.0006427418099219378 
-0.0008295968993445536 -0.0007859827631014796 0 0.0005062522171629777 -0.0002847085791908567 0.0008827815638628605 
-0.0001612451142735862 -0.0001260924867047813 0.0008915503633757682 -0.0003327853084900066 -9.043767131208772e-06 -0.0001165059710490463 
0.0001371003966970147 -0.0005442937553002114 0.0003889561286728264 3.088116453943497e-05 -0.0001966052098201839 -0.0001130431527014787 
0.0007482371286271983 -0.00399851751124173 0.001935963622531347 -0.002061393645489284 -0.00250036021546233 0.002380194803171413 
-2.856855036493562e-05 0.0001923956869436058 0.0004105645743550019 -0.0002016707373115866 -6.56861058777579e-05 -0.0002065664655530413 
-0.0002035436171201477 0.000515409330266026 0.0001091092614489727 0.0002014357720853955 -4.719771390801251e-05 -0.0002987604284199293 
0 0 0 0 0 0 
-0.000185877440016074 0.0003854765489501928 0.0001443840479655072 1.694065894508601e-21 -7.220283498714895e-05 -0.0002825598621549918 
0 -0.0002448428637130362 0.0001787659918486803 -9.716907504191976e-05 -1.247338125233606e-05 0 
-5.929230630780102e-21 0.0002074395931534633 0.0001443840479655071 -6.060154930217783e-05 -6.075401936608855e-05 -7.127394521163461e-05 
0 0 0 0 0 0 
0 -5.053620301089154e-05 0.0001752607346696499 -0.0001219008246204442 -6.529058822440753e-05 0 
0 0 0 0 0 0 
0 0 0 0 0 0 
0 0 0 0 0 0 
0 0 0 0 0 0 
0 0 0 0 0 0 
0 -0.0002721294271827196 0.0003209017044913244 -0.0001612589394672485 -1.247338125233605e-05 0 
0 -0.000201123135563706 0.0002598867399225078 0.0001707079554352534 -6.337552660193331e-05 4.235164736271502e-22 
1.694065894508601e-21 -0.0002051887236812784 0.0004334449190784948 4.88071308148091e-05 -0.0001286661148263409 4.235164736271502e-22 
-0.0006867209655391012 -0.000425001494551722 -5.506545544603447e-05 8.895651587545186e-06 -0.000275086802667135 0.001299393607557146 
-3.363787190595936e-05 2.28336101861306e-05 -0.0002539073566690551 0 -1.144881562106039e-05 -5.507337894669718e-05 
0 0 0 0 0 0 
-0.000112996272062881 -0.0003016242149908431 0 0.0001326191556149732 -0.0001424935185185044 0.0001710554680077827 
0 -0.0001579346083390496 0.0002192208655719377 0.0001788336390093739 -0.0002024726116306376 4.235164736271502e-22 
-7.285438709203516e-05 0.0005988271626674116 -4.630025245912786e-05 -7.587888785317688e-05 -2.048859027187031e-05 4.235164736271502e-22 
-4.455928204904686e-05 -8.458829398674518e-05 0 0.00018931004175522 0 -2.032879073410321e-20 
-0.0005584819380444391 -0.0004529038356007967 0.0005339098323074085 -0.0007140090766219976 -0.0001004514332560144 0.0006468485470095836 
-0.0004754992966655641 -0.0005461534915599152 0.0005768613966402973 -0.0001943379486984543 -0.0004843806333507066 0.0004020936370676309 
-0.0001780983702258622 0.000585136539860642 0.0003576405310683601 -7.851665521919096e-05 -6.776263578034403e-21 -0.0004152663994689755 
0 0 0 0 0 0 
0.0002746646799598596 0.0001081424119058791 0 -6.060154930217787e-05 -7.546654252578898e-05 -0.0002764540222874911 
4.312872954755535e-05 -0.0001589205165700301 0 -0.0002513941099514023 -0.0004990534096346328 0.0006700382372755309 
-0.0005350568196008015 -0.0001333135969006592 0 0 0.00114546680693059 -0.0006269604838412224 
0.0002744088853343594 -0.000843697239948391 0.001425460195683177 -0.0004518857231485347 -0.0001030369534538507 -0.0004057842546946149 
-0.001461618879070236 -0.001836410467549132 0.002995003787407914 -0.001746382568639187 -0.002141020467914939 0.001779578015713342 
-0.003573462561546512 -0.001312584560149487 0.003337986377465762 -0.0009770191324097175 0.001075735630903468 6.800163342692125e-05 
-0.001633406790422908 -0.0007001588423812296 0.003195850664823118 -0.0005248121106754087 -0.0004887471483837752 -4.15980222978479e-05 
-0.0009312660842012121 -0.001066437644433415 9.570329100392753e-05 -0.0001405474038275471 -0.0003808033322179012 0.001468645755284914 
-0.01096580422642694 -0.003161822254421093 0.0164696088640845 -0.008465913165965386 0.0009743102907318886 -0.001598671076365152 
-5.929230630780102e-21 0.0002765610122251699 0 -6.060154930217787e-05 0 -7.127394521163461e-05 
-0.0005448546313647182 0 0 0 -3.801894318557544e-06 0.0005129904196326202 
-0.0001181516906672021 -0.000310898097134852 -1.702555513663149e-06 9.313111461575839e-05 -5.045714652321711e-05 0.0003973990410496652 
-0.00330071750780137 -0.001062282502962948 0.00716522403024059 -0.00445953098716324 -0.0015169255989459 -0.002320260205807792 
0.0002617187528682217 -0.0002314676570148257 0.0004486849321805524 0.0005637933166415689 -0.0005145152664080066 -0.000273916930219277 
-4.053697888327966e-05 -3.816105476704576e-05 0 6.93793473047792e-05 0 0 
0 0 0 0 0 0 
0.0005502785581888744 -0.0001658727746279506 0.0003084675352022978 -0.0003208265919595676 -0.0001277526678455848 -0.0004734694798306014 
-6.74476696098626e-06 -3.970466940254533e-23 0 0.0001326191556149732 0 0 
-0.0002938223002234324 -0.0003453680841293508 0.0001787659918486803 -9.716907504191976e-05 -0.0001762887431131616 0.0004482996194455745 
-5.929230630780102e-21 0.0002765610122251699 0 -6.060154930217787e-05 0 -7.127394521163461e-05 
-0.005417450334025626 9.337357316495894e-05 0.0006236908664840126 -0.00107630293706449 0.0009990342833028115 0.0007087608079914293 
-5.929230630780102e-21 0.0002306197552400003 0 2.157646957892709e-05 0 -7.127394521163461e-05 
0 0 0 0 0 0 
0 -2.329510723608506e-05 0 5.43545849270009e-05 0 0 
-0.0005959258476528247 -0.0001649404248732739 0 -0.0001522960642702438 0 0.0005036365132678531 
-5.929230630780102e-21 0.0002765610122251699 0 -6.060154930217787e-05 0 -7.127394521163461e-05 
0 0 0 0 0 0 
0 0 0 0 0 0 
-2.625802136488331e-20 0.000435988337878658 -7.864662199940546e-05 -0.0004188644683352283 -6.529058822440753e-05 -7.127394521163461e-05 
-0.0005110055744909296 -0.0005245069418354864 0.0003209017044913244 2.805110228797127e-05 -8.898958529325788e-05 0.000513187664499385 
-4.428583672709958e-05 0.0003420597945581853 0 -0.000118985341907027 0 0 
-3.388131789017201e-21 5.101691229763566e-05 0.0001186617569112046 -6.408986442532889e-05 2.964615315390051e-21 0 
-0.0006872963877109158 0.0002678692533123556 0 0.0001851732331311293 0.00114546680693059 -0.0008544469670495169 
0 0 0 0 0 0 
0 0 0 0 0 0 
-5.929230630780102e-21 0.0002074395931534633 0.0001443840479655071 -6.060154930217783e-05 -6.075401936608855e-05 -7.127394521163461e-05 
-0.002696778313646474 -0.00103724637584289 0.001681997441472417 -0.001316764871392079 -0.001214940670378216 0.003185743526067355 
-0.004878986465097384 -0.002834713271856655 0.004147433586769169 -0.0007774426634452006 0.002315925548360467 -0.0009465204334464416 
-0.004560938041477885 -0.0008661996538316146 0.00613546134938071 -0.001660356677468503 -0.000766056139153911 -0.001103716083383034 
-0.0001169592775464866 -0.0005140935382481361 0.0008915503633757682 -0.0001316219477018746 -9.043767131208786e-06 -0.0001165059710490463 
-0.01208313685058344 -0.001396947048173317 0.01501662190399045 -0.008114655309148492 0.004003171783545227 -0.004380932857211634 
-0.0005352300630185097 -7.831628909722648e-05 -0.0002773813124004943 -0.0003814050011444756 -5.045714652321711e-05 0.0008144384793622338 
-0.0002324135228217228 0.0005343980918944753 0.0004309038085736581 -6.408986442532891e-05 -0.0001631778589419193 -0.000362694167420215 
-2.856855036493562e-05 0.0003027286225069921 -4.630025245912786e-05 -0.0001420667790772791 -2.048859027187031e-05 0 
-0.004055047788497823 0.001461491483002578 0.001985207114359934 -0.0006076060713103344 0.0007610037258220894 -0.0008822088020774811 
0.0002280584416205944 0.0003857978895548097 0.0004486849321805524 -6.060154930217789e-05 -0.0005776036408718088 -0.0004354011516233961 
0 -2.728656346968331e-05 0.0001421357126426438 -6.408986442532889e-05 2.964615315390051e-21 0 
0 0 0 0 0 0 
-0.0008560785345459339 0.0008483269548237954 0 0.0003177923887461024 -3.801894318557544e-06 5.801745321603103e-05 
-0.0004254619346817006 4.091184828870279e-05 0.0002598867399225078 -7.467789137761394e-05 -9.229675631642546e-05 8.067471408866473e-05 
-4.428583672709958e-05 0.0003420597945581853 0 -0.000118985341907027 0 0 
-0.000304979826207199 -0.0005336007166021068 0.001067819664614817 -0.0003917697213319328 -8.117590872622018e-05 -9.021027619248442e-05 
-0.001918075370353244 0.0006008150153496291 0.005049628467235632 -0.002737688716317348 -0.002469742628269555 -0.002531103574452264 
-0.008223821675707043 -0.003734770251529213 0.01089609754481551 -0.002714137519340714 -0.0008590044928946878 -0.0007286617160921996 
-0.002526573412383628 -0.001311454025659404 0.002735065598200092 -0.0004434808277159056 0.0004233007023239838 -0.0001232528447693364 
-0.001341780286050006 -0.0005463731357975766 0.0006760455449500522 -0.000222960747606319 0.0004167946077462533 0.0004126339395513666 
-0.005687464465109279 -0.0002971485312319313 0.004776385600303174 -0.001766768780514293 -0.001084194253879328 0.0008001906740924639 
-0.0001047741096488989 -0.0004388955652132747 0.0003914289707700085 -2.080487181763121e-05 -0.0002658481382325709 0.0003519453693866191 
0.00021451269434996 -0.0002585172869569042 0.0001421357126426438 0.0001210833687058003 0.0003047441644136562 -0.0008283225413486477 
-0.0002399293512490354 -0.0002788280847259089 0 0.0005073285759634818 -0.0001424935185185044 9.978152279614806e-05 
-0.001872879826679671 -0.0003684668736816377 0.0008751377101644046 -0.000811373782849165 0.000933426680236042 -9.261359850551344e-05 
0.0003543046551142917 -0.002664089712206252 -0.0003747145438969558 -0.006348347634229741 0.005963331629163899 -0.0125889479215058 
-0.001348793535429544 0.0002254383763736848 0.0004008935697993674 0.0001963690365524196 0.0001374656944098291 -0.0005694318103632472 
-0.0006568495012677084 2.719368055766194e-05 0 -0.0002210745032822568 0.001148842913134253 -0.0004047910741607545 
-0.002797472504932757 0.0009138231941524412 0.001800764808783746 -0.001168392843308671 -0.0003514723682524942 0.0003220677088699844 
-0.003647532843726182 -0.006183043954968389 0.00280566388120739 -0.0008658831965957341 0.00454138149095802 -0.00144901978355006 
-0.001842109617415856 -0.002674716077647144 0.001384307357543018 -0.0008785012408528014 0.0009225592436192637 0.0001027947301789516 
0.001118582276843566 -0.002125179354844513 0.004141032050579802 -0.001560970694425309 -0.0017458036349181 -0.002134938760803882 
-0.008392554186392856 -0.01914601682087063 -0.02037562024964438 -0.01323563655843191 -0.02073340956630935 -0.00842472580782283 
-0.0114753098522075 0.00297348023821164 0.004378711014128201 2.47531008919842e-06 -0.006870811712604742 0.007812619918204181 
-0.0006971017255161634 -0.001637491135525478 0.002572529719908559 -0.001082597063401073 -6.673361560368255e-05 -0.0008724860571293384 
-0.003262371040108886 -0.001931980097977337 0.0004587179529585331 -0.0002882069907843418 0.001867708894694122 -5.391307529061087e-05 
-0.000968708475158066 -0.0002634711716125147 0.001954268342573577 0.0007066942491794858 -0.0003760261592088417 -0.000537659041785614 
-0.001549685409963478 0.003768482830659719 -0.0002851269264518214 -0.000969289515106229 -0.0007394701588943868 0.0001726935360413407 
-1.223164743697575e-05 -0.0001204615126814254 0.0001331791385354185 -0.0001219347821956339 -9.292562598909212e-06 0 
-0.003947836411223479 -0.0004302473752789368 0.0004161135945895869 -0.001628925185060325 -0.000988918708812944 0.004147885280393833 
-0.003322759800140451 -0.003190467187907989 0.0004115857682161769 4.00201621710663e-05 -0.0007025339809694853 0.004331938516395626 
0.001634391052263073 0.001322290167677709 0.001363391345525898 -0.001424539215403214 -0.00125772132476183 -0.001969565518815381 
-0.0007700657195040571 -0.000344225956000304 0.002539083092342806 -0.0009775400816034233 -0.001464760455814159 -0.0001468674909254591 
-0.0008676068972482902 -0.0005874832299993469 0.0004503595096249778 -0.0008708323845168438 -0.0003565160087967196 0.001243508269910305 
-0.001313419490864751 0.0005970294369241682 0.000723564483152008 -0.0001479447538419456 -0.001186498052808628 0.0007391168459481673 
-0.003972089308988945 -0.0001323866449440833 0.00102755508917333 0.0001771590614182755 -0.0007878717899310389 0.002930640346000056 
-0.0006290881423755676 0.0004784310018427059 0 0.000169066500289795 -7.871540044018907e-05 -0.0001125554125409537 
-0.008233636717117581 -0.00150428050775539 0.004522748195562116 -0.002877458934318101 -0.003454744321062128 0.007584130116054133 
-0.008798990125458133 -0.001737753500705653 0.01615244653278632 -0.009529126986485274 -0.01184484574566043 0.006810604215874518 
-0.002464999475714048 -0.003765964978935677 0.002363022435319701 -0.002396032076560932 -0.001284419253006674 0.002107698439715508 
-4.548838537847838e-05 -0.0003113824699782079 0.001340089253427843 -0.0008239353496182325 -0.0007133411714540098 -4.235164736271502e-22 
-0.0004292835611218477 -0.000575429589322199 0.0006037645083638059 -0.0001725747822895088 -0.0006003980208243723 0.0002666945546244627 
0 -6.801271450915041e-05 0 0.0001216586245973293 0 0 
-0.0004009298429239697 3.260312199798323e-05 0.0003586525807818348 -0.0001627146146496695 -0.0002134170632830734 0.0003441709397389996 
0 0 0 0 0 0 
-4.548838537847838e-05 0.0003513481714984622 0 -0.000122216299545377 0 0 
-0.0002712478845507292 -0.0003597571142223267 0 -0.0001790598389971721 -0.0001720825027460784 0.0003497426502681186 
-0.005262103103278969 0.001937346711083591 -7.162363223862601e-06 -0.001379767718190539 0.001210469497816987 0.001218112074358167 
-0.0004546410830520806 0.0002420577744437361 0.0006685212774174806 1.774289272700618e-05 -0.0004979478087447375 0.0002468596948515739 
-0.002171012011382254 6.034862701581119e-06 0.001341635586760132 -0.001010698544873046 -0.001219111360219799 0.001422136443502686 
0 0 0 0 0 0 
-0.005029174121291072 -0.004540213958320413 0.0006916321746720129 -0.001064310798311555 -0.001047811110589113 0.003763615019536821 
-0.0003586034201336913 0.0004358874570630476 -4.043199607522824e-06 -6.908872753597649e-05 -2.309892840101544e-05 0.0005391430750832151 
-0.003353653763648901 -0.005813528311999086 0.006911326109070134 -0.008067955715407657 -0.005087332365311365 -0.0006314020098285231 
-0.004746258664370351 -0.005902217711879351 0.0014838255208606 5.266351081156314e-05 0.0003308394230098149 0.003032046104344769 
-0.00416745364648606 -0.000218425374881851 0.001014011914337333 -0.0003792665664264469 0.001522774085314479 -0.0001008516683292421 
-0.001033164141835031 0.0007060196928091289 0.0002016114575558475 -0.0001405281263634095 -0.0001606401841586258 0.0001467918556688627 
0.001672789360843169 -0.002296199977819787 0.002530883380093722 -0.00037041387312894 -0.0006246741933239424 -0.001597103818559103 
-0.00197450070372706 0.0003719350019277626 0.0002436749927646699 -0.0001496564538623333 -0.0003064225361777937 0.001138647928937027 
-0.0007424696482374599 0.0008566645918629062 -6.672718084603919e-06 -5.18171570821339e-05 -0.0001076599541824541 0.000319705922409088 
-8.856858014923633e-06 0.0001293403513086728 0 -5.503448190070891e-05 -8.470329472543003e-22 0 
0.001786633516675708 -0.0006390465029070841 0.0002376463946665601 8.889919963906974e-05 -0.0003192116713215111 -0.001601587441550942 
0.001715869325547607 -0.0009545045796253626 -0.0002690662107630319 0.0001674476180092761 -0.0003264813027742265 -0.0002736029729176946 
-0.0005179273446627294 0.0001586569617392228 -0.000102237100895792 0.0001325970444064171 0.0008796177934327408 -0.0005059236368850303 
-0.0001061332979218462 -0.0001479584558242967 0 0.0003090240626331649 0 0 
0.0004839100739027748 -0.0002676091937627536 0 -0.0001513000851651704 -8.75145531855726e-05 -0.0002951828979737376 
0 -4.33990326898841e-05 0 0.000174850301699773 0 -4.235164736271502e-22 
-0.001106133987715304 0.003159681491261882 -0.0003191308262063793 -0.0008878265187386118 -0.0001224676214023962 0.0006137024629393243 
0 -2.24405073122321e-05 0 5.236054284473397e-05 0 0 
-0.000154138150823393 -0.000727422512561387 0.0003194374016455155 -0.0003293710260796839 -0.0009158698755220541 0.0006430810295331939 
-7.484594671900818e-05 -0.0001175919448934087 0.0003957301230486873 7.104250798793235e-05 -0.0001028791966827638 -0.000325820187589193 
-0.004187650863027229 -0.001595478085894189 0.0009532309695168494 0.0002028765329336434 0.002981413360586028 -0.001243942884328781 
0.001358733717363061 -0.0002195118793844945 0.001011826912252798 -0.0003020737376583619 -0.0003597961499463409 -0.001588497399269536 
-0.0001964346986188119 -0.0004962709756528407 -0.0001427927491221406 -0.0002299096382337248 -0.0002134329173448583 0.0005118907477615069 
-0.0003725779800658053 -0.0001488214115522577 0 4.920287386266761e-05 -0.0002074419569341448 0.0005659505003151504 
-0.001924275042764556 -0.001058790394258491 -7.616584288127777e-05 -0.0002315895290707501 -0.0003183695500318003 0.002023586666041386 
0 0 0 0 0 0 
-0.0006961541554677559 0.000399447767959497 -0.0001776069483487074 -0.0004383045871188615 -0.0005070388507957462 0.0005776986994576135 
-0.0003612213911892746 0.000301610609936947 -3.951936077329319e-05 7.672269635974853e-05 -0.0004892864990681599 0.0002707676023414128 
-0.006249626353501638 -0.005415190633947003 6.431949337435171e-05 6.865198519068944e-05 -0.002367671758177814 0.008104877912726348 
-0.0005378964869090101 -2.86332615609566e-05 -6.310340398284523e-05 -0.000434332166705724 -1.579359385193791e-05 0.0008917045136838776 
-0.001242687541036299 0.0005332717512067997 -0.000135084618808717 0.0004673958034756943 0.001883326029337792 -0.001397259833391968 
-0.0002272133596997348 -0.0005872952063174194 0 0.0001423833097643023 -0.0003374631138662158 0.0004774637879850886 
-0.006315240446261969 -0.01942965118394827 0.004368876074962834 -0.007230049262393105 -0.008548348488314464 0.0130428177806188 
-0.001722082334983995 -6.116829162640465e-05 -0.0002437712967787696 -0.0001174136640467626 -0.0001260000398784431 0.001700619325333055 
0.01258918473621406 -0.003844721039844565 -0.001251578377635849 -0.01183938918880705 -0.004231583128257194 -0.004332972121888339 
-0.0001118357108239768 -0.002307026435166988 -0.001127544591948137 0.0006725823461560689 -0.001533646620371733 0.001072840803017716 
-0.001725175948729062 0.001915088911592218 0.0003331141001529546 -0.001026885276473905 -0.000520959269403239 0.0009560029988245068 
-0.0001199028721893753 0.0003339202825323697 9.087157257295571e-05 0.0002232523586860196 -8.746039209606741e-05 0 
-0.001160043166949148 0.0002241891677835763 -0.0003467208546529314 0.0004087548787626693 0.0006032539054306513 0.0006659429451073988 
-0.0005751225460605931 0.0004988402166008596 -8.470329472543003e-22 -4.954465042314135e-05 -0.0002068067470570253 0.0002791134308903253 
-0.0001282789019967813 0.0004978287414626293 -0.0003835711041348255 1.422913663677536e-05 -7.290391831719363e-05 0.0002996682642172782 
-1.003454957836743e-05 0.000470088329142501 -8.470329472543003e-22 -0.0001097676283235071 0 -0.0001118185689552939 
-6.883043439395166e-06 -8.527976383055185e-05 0.0005059134561263989 -1.287541780141293e-05 -5.004988343697604e-05 -0.0002287432701626436 
-0.000271379042541497 3.628118577073528e-05 0.0005059134561263991 2.971433864623619e-05 -5.004988343697603e-05 -0.000409302366435369 
6.269802932915335e-05 1.998350596165829e-05 -0.0001337785368830193 -7.576923195813709e-06 -0.0001444419368896988 -0.0001585778984206035 
-5.020755815692225e-05 -0.0003528383253068056 0.0003586525807818348 0.0003681944584127259 -8.746039209606741e-05 -2.964615315390051e-21 
-2.542276439639622e-05 -9.197458985125621e-05 0.0001489944351167539 -5.466420057618539e-05 -2.523780034577234e-06 0 
0 -0.0003246509387133015 0.0005750324651849378 -2.622001395146904e-05 -0.0002873090706656491 0 
-0.0004039123921986578 -0.0004117560797029432 0 0 -0.0002498492335399053 0.0006024519750552985 
